
\data\
ngram 1=12

\1-grams:
-0.3199611	</s>
-99	<s>
-1.28289	eight
-1.28289	five
-1.28289	four
-1.28289	nine
-1.28289	one
-1.28289	seven
-1.28289	six
-1.28289	three
-1.28289	two
-1.28289	zero

\end\
