
\data\
ngram 1=33110
ngram 2=425750

\1-grams:
-6.50412	'vette	-0.1519722
-1.112975	</s>
-99	<s>	-1.088639
-2.249911	@reject@	-0.09207582
-2.150627	[laugh]	-0.8666774
-2.618646	[mouth]	-0.5575889
-2.823151	[noise]	-0.4146891
-1.667056	a	-0.3744507
-4.788117	a's	-0.3464954
-6.50412	a-leaf	-0.186616
-6.50412	aames	-0.1846613
-6.50412	aaron	-0.1706273
-9.322292	aaronson
-6.50412	aback	-0.1864326
-6.50412	abacus	-0.1868034
-6.50412	abalon	-0.1841726
-6.20309	abalone	-0.182031
-6.026999	abandon	-0.1717624
-5.549878	abandoned	-0.1891898
-6.20309	abandoning	-0.1861823
-9.322292	abandonment
-9.322292	abbey
-9.322292	abbott
-6.50412	abbreviated	-0.1867798
-6.50412	abbreviation	-0.1842781
-6.20309	abby	-0.392251
-9.322292	abby's
-9.322292	abdel
-9.322292	abdomen
-9.322292	abdominal
-6.50412	abdominals	-0.1519722
-9.322292	abducted
-6.50412	abducting	-0.1742224
-6.50412	abduction	-0.1726889
-6.20309	abdul	-0.1834533
-6.026999	abe	-0.1868137
-5.725969	aberdeen	-0.285955
-9.322292	aberration
-9.322292	abetting
-6.50412	abhor	-0.1868136
-5.902061	abide	-0.4327354
-5.902061	abiding	-0.2817162
-5.142393	abilene	-0.4633945
-5.225367	abilities	-0.2165121
-4.545079	ability	-0.7737703
-3.452196	able	-1.737538
-5.659022	able-bodied	-0.1346156
-5.902061	abnormal	-0.2396362
-6.50412	abnormality	-0.1706273
-9.322292	abo
-6.50412	aboard	-0.1868104
-9.322292	abode
-6.50412	abolish	-0.1795717
-9.322292	abolished
-9.322292	abolishing
-6.50412	aborigines	-0.1519722
-6.50412	abort	-0.1742224
-9.322292	aborted
-5.181901	abortion	-0.1935738
-9.322292	abortionist
-6.20309	abortions	-0.1688507
-6.50412	abounding	-0.1816477
-2.440224	about	-0.6574429
-6.50412	about-face	-0.1816477
-5.902061	abouts	-0.1396874
-4.49552	above	-0.3592275
-6.20309	aboveboard	-0.3715342
-5.902061	abraham	-0.2723634
-9.322292	abrahim
-6.50412	abram's	-0.1868084
-6.20309	abrams	-0.1519374
-9.322292	abramson
-9.322292	abrasion
-9.322292	abrasions
-6.026999	abrasive	-0.1503974
-5.50412	abreast	-0.8275983
-6.50412	abridged	-0.1868088
-5.248848	abroad	-0.2272876
-6.50412	abrupt	-0.1726889
-9.322292	abruptly
-6.026999	absence	-0.1686452
-6.026999	absent	-0.1844466
-5.273671	absentee	-0.2479401
-6.20309	absenteeism	-0.1503995
-6.50412	absentees	-0.1726889
-4.960052	absolute	-0.1768049
-3.770121	absolutely	-0.4692305
-6.50412	absoluteness	-0.1834669
-5.549878	absorb	-0.1344959
-5.902061	absorbed	-0.1762804
-9.322292	absorbing
-6.026999	absorbs	-0.1730031
-9.322292	absorption
-9.322292	abstain
-5.725969	abstinence	-0.1225592
-6.50412	abstract	-0.1852362
-6.50412	abstracts	-0.1864413
-5.328029	absurd	-0.1984136
-9.322292	absurdity
-9.322292	abu
-9.322292	abu's
-6.026999	abundance	-0.5704836
-6.50412	abundant	-0.1843654
-6.50412	abundantly	-0.1867994
-4.634889	abuse	-0.3519697
-4.998971	abused	-0.2967964
-6.20309	abuser	-0.1506145
-6.026999	abusers	-0.1286284
-5.60103	abuses	-0.315617
-5.659022	abusing	-0.2163641
-5.805151	abusive	-0.1757533
-9.322292	abysmal
-6.50412	abyss	-0.1519722
-6.026999	academia	-0.1705622
-4.972641	academic	-0.2236449
-5.659022	academically	-0.2420717
-5.3	academics	-0.2891634
-6.50412	academies	-0.1828703
-5.123909	academy	-0.3914589
-6.50412	acapulco	-0.1726889
-6.50412	accelerate	-0.1742224
-5.902061	accelerated	-0.1850572
-9.322292	accelerating
-6.026999	acceleration	-0.1501193
-4.822879	accent	-0.5473232
-6.50412	accent's	-0.1866995
-5.60103	accents	-0.1850996
-4.623307	accept	-0.4054867
-4.850908	acceptable	-0.4138583
-9.322292	acceptably
-5.60103	acceptance	-0.2836444
-6.50412	acceptances	-0.1726889
-4.850908	accepted	-0.1502441
-5.424939	accepting	-0.2081928
-5.725969	accepts	-0.1782168
-4.569622	access	-0.7052737
-6.20309	accessed	-0.1781228
-6.50412	accessibility	-0.1796803
-5.424939	accessible	-0.3310889
-5.805151	accessories	-0.1474181
-6.50412	accessorize	-0.1795717
-6.50412	accessors	-0.1839326
-9.322292	accessory
-4.590306	accident	-0.3108831
-5.549878	accidental	-0.1762065
-5.659022	accidentally	-0.2268729
-6.20309	accidently	-0.1851175
-4.822879	accidents	-0.29325
-6.20309	acclaim	-0.1519498
-6.20309	acclaimed	-0.1493256
-6.20309	acclimate	-0.1754165
-5.725969	acclimated	-0.3234843
-5.424939	accommodate	-0.179622
-6.50412	accommodated	-0.1867647
-6.20309	accommodating	-0.1405868
-9.322292	accommodation
-6.50412	accommodations	-0.1806993
-6.50412	accompanied	-0.1850212
-6.50412	accompaniments	-0.1726889
-6.50412	accompany	-0.1867507
-9.322292	accompanying
-9.322292	accomplice
-6.50412	accomplices	-0.1781593
-5.161697	accomplish	-0.2133226
-5.3	accomplished	-0.1227229
-6.50412	accomplishes	-0.1773648
-5.725969	accomplishing	-0.1213779
-5.725969	accomplishment	-0.1635503
-6.50412	accomplishments	-0.1763181
-5.089147	accord	-0.4587287
-6.50412	accordance	-0.1850212
-4.947818	according	-1.558783
-5.659022	accordingly	-0.3453722
-6.20309	accordion	-0.1841563
-5.902061	accords	-0.2306571
-6.50412	accosted	-0.1519722
-4.278811	account	-0.3498558
-6.50412	account's	-0.1773648
-5.725969	accountability	-0.149298
-5.462728	accountable	-0.3528504
-5.10618	accountant	-0.3019744
-6.50412	accountant's	-0.1867631
-5.60103	accountants	-0.2742441
-6.50412	accounted	-0.1857687
-4.935919	accounting	-0.1829975
-4.972641	accounts	-0.2855249
-6.50412	accreditation	-0.1773962
-6.50412	accreditations	-0.1851055
-6.50412	accredited	-0.1726889
-5.805151	accrue	-0.2087176
-6.026999	accrued	-0.1363146
-5.549878	accumulate	-0.2095681
-5.659022	accumulated	-0.2186988
-6.50412	accumulates	-0.1816477
-5.902061	accumulating	-0.1805831
-6.026999	accumulation	-0.1431137
-6.20309	accumulative	-0.1866229
-6.20309	accumulators	-0.136645
-5.725969	accuracy	-0.1060424
-4.870652	accurate	-0.2540475
-5.725969	accurately	-0.1977922
-6.20309	accusation	-0.1701581
-6.20309	accusations	-0.144236
-5.805151	accuse	-0.2588303
-4.998971	accused	-0.5032007
-9.322292	accuser
-9.322292	accusers
-6.50412	accuses	-0.1859985
-6.50412	accusing	-0.1867161
-5.805151	accustom	-0.5171077
-5.072757	accustomed	-1.607164
-6.026999	ace	-0.3202451
-6.50412	aces	-0.1519722
-6.20309	ache	-0.149638
-6.50412	aches	-0.1763181
-9.322292	achievable
-5.3	achieve	-0.2404507
-5.725969	achieved	-0.3169249
-5.805151	achievement	-0.2050777
-6.026999	achievements	-0.3063371
-6.50412	achieving	-0.1868048
-4.924337	acid	-0.7660434
-6.50412	acidic	-0.1868114
-6.50412	acidity	-0.1796803
-5.902061	acids	-0.2479089
-9.322292	acklin
-6.20309	acknowledge	-0.1773621
-6.50412	acknowledgeable	-0.1856787
-9.322292	acknowledged
-9.322292	acknowledgement
-9.322292	acknowledges
-6.50412	acknowledging	-0.1742224
-6.20309	acorn	-0.1857945
-5.805151	acorns	-0.1439089
-6.20309	acoustic	-0.1868137
-6.20309	acoustical	-0.4063275
-6.50412	acoustically	-0.186771
-5.3	acoustics	-0.4701021
-6.026999	acquaintance	-0.3113064
-5.902061	acquaintances	-0.1544329
-5.462728	acquainted	-0.4438432
-5.659022	acquire	-0.2202025
-5.50412	acquired	-0.2914781
-6.20309	acquiring	-0.1859518
-6.20309	acquisition	-0.1861955
-9.322292	acquisitions
-6.20309	acquit	-0.1516184
-6.20309	acquittal	-0.1797231
-5.902061	acquitted	-0.2416406
-6.50412	acquitting	-0.1742224
-4.913056	acre	-0.374761
-5.902061	acreage	-0.1549358
-5.012759	acres	-0.4972428
-9.322292	acronym
-4.022678	across	-0.666086
-5.902061	across-the-board	-0.1850441
-6.50412	acrostic	-0.1868149
-6.50412	acrylic	-0.1867949
-6.50412	acrylics	-0.1726889
-4.545079	act	-0.4084383
-5.328029	acted	-0.2067668
-5.142393	acting	-0.1738459
-6.50412	actinide	-0.1868141
-4.540332	action	-0.2455018
-9.322292	action's
-5.123909	actions	-0.1962577
-6.50412	activate	-0.1795717
-6.026999	activated	-0.1631076
-4.432238	active	-0.4176543
-5.549878	actively	-0.2611465
-9.322292	activism
-5.902061	activist	-0.1449348
-6.026999	activists	-0.1722037
-4.313788	activities	-0.4753397
-4.665271	activity	-0.2064893
-4.998971	actor	-0.185182
-9.322292	actor's
-5.357992	actors	-0.1799908
-6.50412	actors'	-0.1868014
-5.549878	actress	-0.3457897
-5.805151	actresses	-0.1449368
-5.3	acts	-0.4383397
-4.530993	actual	-0.1037656
-6.20309	actuality	-0.178801
-3.128091	actually	-0.2599719
-6.20309	acuity	-0.1483432
-6.50412	acupuncture	-0.1867322
-6.026999	acura	-0.5776169
-6.20309	acute	-0.1868062
-6.50412	acutely	-0.1867893
-5.161697	ad	-0.4035802
-9.322292	ada
-5.805151	adage	-0.2022043
-5.725969	adam	-0.2243282
-5.60103	adamant	-0.4066888
-6.50412	adamantly	-0.1519722
-6.50412	adams	-0.1519722
-5.50412	adapt	-0.257548
-6.20309	adaptable	-0.150004
-6.20309	adaptation	-0.3992423
-6.026999	adaptations	-0.1618286
-6.026999	adapted	-0.5681995
-6.20309	adapting	-0.176427
-6.50412	adcose	-0.1846613
-4.336803	add	-0.4043778
-6.026999	addam's	-0.5773947
-4.69794	added	-0.2979774
-9.322292	addendum
-6.50412	adder	-0.1846613
-6.026999	addict	-0.1617262
-5.161697	addicted	-0.7953151
-5.725969	addiction	-0.2229023
-5.725969	addictive	-0.1937269
-5.902061	addicts	-0.2222841
-4.960052	adding	-0.231283
-5.072757	addison	-0.2259867
-4.860668	addition	-0.5907431
-5.012759	additional	-0.2000299
-6.50412	additionally	-0.1859501
-6.50412	additions	-0.183901
-6.20309	additives	-0.392251
-4.711729	address	-0.2930879
-5.462728	addressed	-0.1386329
-5.50412	addresses	-0.4099749
-5.725969	addressing	-0.1643056
-4.913056	adds	-0.6223476
-6.50412	adelaide	-0.1519722
-9.322292	adele
-5.902061	adept	-0.6793426
-5.142393	adequate	-0.2066695
-5.805151	adequately	-0.1721496
-5.902061	adhere	-0.4331193
-6.50412	adherence	-0.1864413
-6.50412	adheres	-0.1866037
-6.50412	adhering	-0.1773962
-6.50412	adhesive	-0.1868134
-6.20309	adios	-0.1503299
-6.50412	adirondack	-0.1867661
-6.50412	adirondacks	-0.1726889
-6.026999	adjacent	-0.5681995
-6.50412	adjoin	-0.1795717
-6.026999	adjoining	-0.3201644
-6.50412	adjourned	-0.1726889
-6.50412	adjudicator	-0.1519722
-9.322292	adjunct
-4.998971	adjust	-0.3668736
-6.50412	adjustability	-0.1726889
-6.026999	adjustable	-0.1410588
-5.041722	adjusted	-0.2757528
-6.50412	adjusters	-0.1849989
-5.357992	adjusting	-0.3171329
-5.60103	adjustment	-0.2293881
-5.659022	adjustments	-0.1261271
-9.322292	adler
-6.50412	admin	-0.1846403
-6.50412	administaff	-0.1866413
-5.357992	administer	-0.3560863
-5.902061	administered	-0.1341997
-6.50412	administering	-0.1867718
-6.20309	administers	-0.1860738
-6.20309	administrate	-0.178186
-6.026999	administrating	-0.1643827
-4.788117	administration	-0.3592478
-6.50412	administration's	-0.1848888
-9.322292	administrations
-5.273671	administrative	-0.2907206
-6.50412	administratively	-0.1816477
-5.248848	administrator	-0.2199992
-5.181901	administrators	-0.2313197
-6.50412	administrators'	-0.1865673
-6.20309	admirable	-0.136645
-6.50412	admiral	-0.1866228
-6.20309	admiration	-0.1841761
-5.248848	admire	-0.2528651
-9.322292	admired
-6.50412	admirer	-0.1796803
-9.322292	admirers
-6.50412	admires	-0.1864886
-9.322292	admissibility
-6.50412	admissible	-0.186805
-6.026999	admission	-0.1721858
-5.60103	admissions	-0.4061865
-4.491283	admit	-0.6120399
-6.026999	admits	-0.1701126
-5.181901	admitted	-0.3620762
-6.50412	admittedly	-0.1843834
-6.50412	admitting	-0.1868142
-9.322292	admonished
-9.322292	admonition
-6.50412	admonitions	-0.1796803
-9.322292	ado
-6.50412	adobo	-0.1726889
-6.50412	adolescence	-0.1853988
-9.322292	adolescent
-5.60103	adolescents	-0.2273012
-6.50412	adolf	-0.1868144
-9.322292	adolph
-6.50412	adolph's	-0.1867975
-5.20309	adopt	-0.3856243
-5.123909	adopted	-0.3506185
-5.902061	adopting	-0.1405734
-5.424939	adoption	-0.2146074
-9.322292	adoptions
-6.50412	adoptive	-0.1866999
-6.50412	adopts	-0.1866674
-5.902061	adorable	-0.2457196
-6.20309	adore	-0.178186
-5.902061	adored	-0.3988018
-6.50412	adornment	-0.1726889
-6.20309	adrenalin	-0.186624
-9.322292	adrenaline
-6.50412	adrian	-0.1519722
-9.322292	adriana
-9.322292	adriatic
-6.50412	adrift	-0.1816477
-6.50412	adroit	-0.1816477
-4.924337	ads	-0.2695662
-6.50412	adubato	-0.1855292
-4.634889	adult	-0.2221036
-6.50412	adult's	-0.186791
-9.322292	adultery
-6.026999	adulthood	-0.1517189
-4.646788	adults	-0.4145414
-4.913056	advance	-0.1774718
-5.026999	advanced	-0.1980943
-5.902061	advancement	-0.1481035
-9.322292	advancers
-5.328029	advances	-0.1709969
-5.902061	advancing	-0.1791772
-4.348784	advantage	-0.7512104
-6.50412	advantaged	-0.1867661
-5.659022	advantageous	-0.1649469
-5.056962	advantages	-0.3648381
-6.026999	advent	-0.3131297
-6.50412	adventists	-0.1519722
-5.161697	adventure	-0.2382604
-6.20309	adventurer	-0.1862872
-5.725969	adventures	-0.2031365
-5.805151	adventuresome	-0.2058272
-5.805151	adventurous	-0.2425856
-9.322292	adversarial
-6.50412	adversaries	-0.1773962
-9.322292	adversary
-5.60103	adverse	-0.2733243
-9.322292	adversely
-9.322292	adversity
-5.142393	advertise	-0.268861
-5.072757	advertised	-0.2884861
-5.462728	advertisement	-0.4161261
-5.20309	advertisements	-0.3010305
-9.322292	advertiser
-6.20309	advertisers	-0.1405868
-4.860668	advertising	-0.2547103
-4.733268	advice	-0.2698425
-6.50412	advices	-0.1865172
-6.026999	advil	-0.1700847
-6.20309	advisable	-0.1417572
-5.161697	advise	-0.2575165
-5.902061	advised	-0.2712203
-6.50412	advisement	-0.1848896
-6.50412	adviser	-0.1856712
-6.50412	advisers	-0.1842781
-9.322292	advises
-6.20309	advising	-0.182529
-6.026999	advisor	-0.1746786
-5.725969	advisors	-0.1037815
-6.20309	advisory	-0.1867947
-6.50412	advocacy	-0.1867964
-5.248848	advocate	-0.5144188
-9.322292	advocated
-6.50412	advocates	-0.1763181
-6.50412	advocating	-0.1867549
-6.50412	advocation	-0.1726889
-6.50412	aerate	-0.1742224
-6.20309	aerial	-0.1425855
-6.50412	aerobatics	-0.1842781
-5.041722	aerobic	-0.3113564
-6.50412	aerobically	-0.1868106
-4.373786	aerobics	-0.3366074
-6.50412	aerodynamic	-0.1868112
-6.50412	aerodyne	-0.1867979
-6.50412	aeronautical	-0.1775512
-6.50412	aerosmith	-0.1726889
-5.60103	aerosol	-0.3112336
-6.20309	aerospace	-0.1519306
-6.50412	aerostar	-0.1846613
-6.50412	aesthetic	-0.1831002
-6.50412	aesthetically	-0.1868145
-5.161697	aetna	-0.3759643
-6.20309	afar	-0.1706232
-5.225367	affair	-0.3945873
-5.424939	affairs	-0.1575484
-4.779844	affect	-0.4230436
-4.880871	affected	-0.4822198
-5.357992	affecting	-0.2531401
-5.60103	affection	-0.1766898
-5.725969	affectionate	-0.1776204
-4.822879	affects	-0.2733004
-6.50412	affidavit	-0.1775512
-9.322292	affidavits
-6.026999	affiliate	-0.1739095
-5.659022	affiliated	-0.8223118
-6.50412	affiliates	-0.1519722
-6.50412	affiliation	-0.1850212
-9.322292	affinity
-9.322292	affirm
-9.322292	affirmation
-6.026999	affirmative	-0.5776058
-9.322292	affirmed
-6.50412	affixing	-0.1796803
-6.20309	afflicted	-0.1866568
-6.50412	affluence	-0.1831002
-5.659022	affluent	-0.1214711
-6.50412	affluents	-0.1816477
-4.024113	afford	-0.6875653
-5.462728	affordable	-0.1855275
-6.20309	afforded	-0.1699927
-6.20309	affording	-0.1677364
-6.026999	affords	-0.3068316
-9.322292	affuse
-5.50412	afghan	-0.2446297
-6.50412	afghani	-0.1775512
-6.026999	afghanistan	-0.1697751
-6.50412	afghanistan's	-0.1861454
-5.549878	afghans	-0.2982857
-5.902061	afloat	-0.1503366
-6.20309	afoot	-0.3969582
-4.175741	afraid	-0.6767989
-6.50412	afresh	-0.1831002
-4.972641	africa	-0.3019352
-9.322292	africa's
-5.390177	african	-0.2534634
-6.50412	africans	-0.1846613
-9.322292	afrikaner
-9.322292	afro
-9.322292	afsane
-3.362044	after	-0.7454125
-6.50412	afterburners	-0.1849989
-5.805151	aftermath	-0.2138699
-4.421335	afternoon	-0.4545
-5.181901	afternoons	-0.2229502
-9.322292	aftershock
-9.322292	aftershocks
-6.20309	afterthought	-0.3715342
-5.462728	afterward	-0.1033595
-4.841362	afterwards	-0.4165522
-6.026999	ag	-0.1821798
-3.421335	again	-0.6580443
-3.845155	against	-0.6099547
-6.50412	agape	-0.1867148
-9.322292	agassi
-9.322292	agassi's
-6.026999	agatha	-0.5776178
-3.78645	age	-0.449356
-6.50412	age-old	-0.1865656
-6.50412	age-wise	-0.1867843
-5.659022	aged	-0.2166499
-5.123909	agencies	-0.2158563
-4.763758	agency	-0.1893078
-9.322292	agency's
-5.328029	agenda	-0.170099
-9.322292	agendas
-4.998971	agent	-0.2397405
-5.725969	agents	-0.178014
-6.50412	ager	-0.1706273
-4.740692	ages	-0.2758256
-6.026999	aggravate	-0.162551
-5.725969	aggravated	-0.3279493
-5.659022	aggravates	-0.3715471
-5.3	aggravating	-0.2268934
-6.026999	aggravation	-0.1693723
-9.322292	aggregate
-5.902061	aggression	-0.1536131
-6.50412	aggressions	-0.1846403
-5.089147	aggressive	-0.1945185
-9.322292	aggressively
-9.322292	aggressor
-9.322292	aggressors
-6.026999	aghast	-0.3174213
-6.50412	agile	-0.1726889
-5.659022	aging	-0.138132
-9.322292	agitated
-9.322292	agnes
-9.322292	agnew
-6.50412	agnostic	-0.1726889
-3.342752	ago	-0.7392007
-9.322292	agonized
-9.322292	agonizing
-6.20309	agony	-0.136645
-3.536105	agree	-1.12244
-6.20309	agreeable	-0.1774998
-5.10618	agreed	-0.4466283
-5.659022	agreeing	-0.4764868
-4.924337	agreement	-0.3590934
-5.902061	agreements	-0.1735597
-5.50412	agrees	-0.3705928
-5.357992	agricultural	-0.214475
-6.026999	agriculturally	-0.1295106
-5.462728	agriculture	-0.230449
-9.322292	aground
-6.50412	aguilar	-0.1519722
-5.902061	aguirre	-0.2315215
-9.322292	ah
-6.50412	ah-ya-ya-ya	-0.1763181
-9.322292	aha
-3.806891	ahead	-0.874387
-9.322292	ahmed
-5.462728	ahold	-1.206709
-4.671611	aid	-0.283098
-5.60103	aide	-0.1995987
-9.322292	aided
-6.026999	aides	-0.3086448
-9.322292	aidid
-9.322292	aidid's
-9.322292	aiding
-4.373786	aids	-0.3758002
-9.322292	aikido
-5.248848	aikman	-0.1957059
-6.026999	aikman's	-0.1848907
-9.322292	ailing
-6.50412	ailment	-0.1519722
-6.50412	ailments	-0.185972
-5.659022	aim	-0.1253058
-5.659022	aimed	-0.372421
-6.20309	aiming	-0.1806879
-6.50412	aimlessly	-0.1846613
-9.322292	aimnay
-9.322292	aims
-5.072757	ain't	-0.2611581
-6.50412	ain'ts	-0.1862764
-9.322292	ainday
-6.50412	aines	-0.1837072
-5.805151	ainge	-0.4916694
-6.20309	ainsley	-0.1694779
-3.770121	air	-0.558066
-6.20309	air's	-0.1860588
-6.50412	air-condition	-0.1795717
-5.805151	air-conditioned	-0.1338855
-5.072757	air-conditioning	-0.2257495
-6.50412	air-dry	-0.1854523
-9.322292	airbag
-9.322292	airbags
-6.50412	airborne	-0.1866255
-9.322292	airbus
-5.60103	aircraft	-0.1716567
-6.50412	aire	-0.1851002
-6.50412	aired	-0.1861595
-6.50412	aires	-0.1831002
-5.725969	airfare	-0.1097074
-9.322292	airfield
-9.322292	airfields
-9.322292	airing
-6.20309	airless	-0.1773808
-9.322292	airlift
-4.960052	airline	-0.497977
-9.322292	airline's
-9.322292	airliner
-5.225367	airlines	-0.2875953
-9.322292	airmen
-9.322292	airobid
-5.089147	airplane	-0.3350967
-5.181901	airplanes	-0.1816411
-4.960052	airport	-0.4102592
-6.20309	airport's	-0.1851958
-9.322292	airporter
-6.026999	airports	-0.1705039
-6.20309	airs	-0.1504684
-6.026999	airspace	-0.1429875
-9.322292	airstrikes
-6.20309	airtight	-0.1792274
-6.50412	airwaves	-0.1763181
-6.50412	airway	-0.1726889
-6.50412	airways	-0.1843654
-6.20309	airy	-0.1519341
-6.50412	aisle	-0.1795717
-6.20309	aisles	-0.179568
-9.322292	ait's
-9.322292	ajar
-6.50412	akals	-0.1726889
-9.322292	akashi
-6.026999	akeem	-0.2853659
-9.322292	akers
-6.50412	akimo	-0.1868149
-6.50412	akin	-0.1773962
-9.322292	akina
-9.322292	akita
-6.20309	akron	-0.1519587
-5.50412	al	-0.2504119
-4.822879	alabama	-0.4231949
-9.322292	aladdin
-6.20309	alamo	-0.3715342
-6.50412	alamogordo	-0.1519722
-5.902061	alamos	-0.3976554
-5.805151	alan	-0.3385627
-5.161697	alarm	-0.3252714
-6.50412	alarmed	-0.1519722
-9.322292	alarming
-5.902061	alarms	-0.1390259
-9.322292	alas
-5.142393	alaska	-0.2974032
-6.50412	alaska's	-0.1833151
-5.805151	alaskan	-0.2446008
-6.50412	alastair	-0.1868149
-6.50412	albania	-0.1868141
-9.322292	albanian
-9.322292	albanians
-6.026999	albany	-0.1809179
-6.50412	albeit	-0.1795717
-6.20309	albert	-0.1775473
-6.50412	alberta	-0.1857271
-9.322292	alberto
-5.902061	albertson's	-0.2323833
-6.50412	albrecht	-0.1795717
-9.322292	albright
-4.902061	album	-0.266075
-5.056962	albums	-0.327296
-5.659022	albuquerque	-0.1313544
-6.50412	alcatraz	-0.1763181
-4.569622	alcohol	-0.3778988
-6.20309	alcohol's	-0.1773466
-5.225367	alcoholic	-0.1877964
-5.805151	alcoholics	-0.1660866
-5.805151	alcoholism	-0.1821395
-6.50412	alda	-0.1861519
-9.322292	aldrich
-6.50412	aldus	-0.1726889
-5.50412	ale	-0.2084801
-6.50412	ale's	-0.1773648
-6.20309	alec	-0.1868138
-9.322292	alejandro
-5.50412	alert	-0.3467306
-6.20309	alerted	-0.1417572
-6.20309	alerts	-0.136645
-6.026999	alex	-0.3109776
-6.20309	alexander	-0.1868137
-9.322292	alexander's
-6.50412	alexandra	-0.1868149
-6.20309	alexandria	-0.1726601
-9.322292	alexi
-9.322292	alexia
-9.322292	alexis
-6.50412	alfa	-0.1868149
-9.322292	alfaro
-6.20309	alfie	-0.1844872
-9.322292	alfonse
-9.322292	alfonse's
-5.902061	alfred	-0.6807293
-6.20309	alfredo	-0.1344045
-6.50412	alfredo's	-0.1519722
-6.20309	algae	-0.1867931
-5.60103	algebra	-0.2274992
-6.50412	algeria	-0.1726889
-9.322292	algerian
-6.50412	algorithm	-0.1834669
-9.322292	algorithms
-6.50412	ali	-0.1868149
-9.322292	aliah
-9.322292	alibi
-9.322292	alice
-9.322292	alicia
-5.659022	alien	-0.276033
-6.20309	alienate	-0.1757685
-6.50412	alienated	-0.1706273
-9.322292	alienating
-9.322292	alienation
-5.902061	aliens	-0.1138117
-6.20309	align	-0.4045833
-6.026999	aligned	-0.2834779
-5.902061	alignment	-0.2803222
-6.50412	alignments	-0.1519722
-9.322292	alija
-5.225367	alike	-0.2800895
-6.50412	alimony	-0.1726889
-9.322292	alison
-9.322292	alita
-4.640798	alive	-0.357518
-6.20309	alkaline	-0.1846589
-6.20309	alkies	-0.171818
-2.444936	all	-0.5643225
-5.805151	all's	-0.2420296
-5.805151	all-around	-0.2324047
-6.50412	all-star	-0.1867563
-6.50412	all-stars	-0.1867668
-6.20309	all-time	-0.4063072
-6.20309	allah	-0.1704637
-9.322292	allan
-6.20309	allante	-0.151379
-9.322292	allay
-9.322292	allegation
-9.322292	allegations
-6.50412	allege	-0.1781593
-5.902061	alleged	-0.2735749
-5.805151	allegedly	-0.1491603
-9.322292	alleges
-6.50412	allegheny	-0.1867882
-9.322292	allegiance
-9.322292	alleging
-9.322292	allele
-9.322292	alleles
-5.462728	allen	-0.2366301
-6.20309	allen's	-0.1775412
-6.20309	allendale	-0.136645
-9.322292	allens
-6.20309	allentown	-0.4063586
-5.142393	allergic	-1.53912
-5.424939	allergies	-0.173946
-6.50412	allergist	-0.1519722
-5.902061	allergy	-0.1772096
-5.60103	alleviate	-0.1958786
-6.20309	alleviated	-0.1773453
-6.50412	alleviates	-0.1860336
-6.20309	alleviating	-0.1840876
-5.123909	alley	-0.3244669
-6.50412	alley's	-0.1846403
-5.725969	alleys	-0.1953422
-6.50412	alleyway	-0.1852532
-6.50412	alleyways	-0.1833151
-6.50412	alliance	-0.1519722
-6.50412	alliances	-0.1850212
-9.322292	allied
-5.902061	allies	-0.2387401
-6.50412	alligator	-0.1726889
-9.322292	alligators
-9.322292	allison
-5.659022	allocate	-0.2691157
-5.805151	allocated	-0.1807688
-6.20309	allocation	-0.1771783
-6.50412	allocation's	-0.1867478
-5.725969	allot	-0.2369867
-6.20309	allotment	-0.1833132
-6.50412	allots	-0.1833151
-5.659022	allotted	-0.177822
-4.39353	allow	-0.446679
-6.026999	allowable	-0.1559513
-5.357992	allowance	-0.202055
-5.549878	allowances	-0.4157371
-4.273671	allowed	-0.6035708
-5.20309	allowing	-0.1524733
-5.10618	allows	-0.4513442
-9.322292	allred
-6.50412	alls	-0.1763181
-6.20309	allstar	-0.4063441
-6.50412	allstate	-0.1846613
-6.50412	alluded	-0.1773962
-6.50412	alluding	-0.1773962
-6.50412	allure	-0.1842781
-6.50412	alluring	-0.1726889
-6.20309	ally	-0.1755629
-6.50412	allyson	-0.1868136
-5.50412	alma	-0.3757079
-6.20309	almanac	-0.1756975
-6.026999	almighty	-0.1795029
-9.322292	almond
-3.49894	almost	-0.2349762
-6.20309	aloe	-0.4063767
-4.223087	alone	-0.2915725
-3.792313	along	-0.7451006
-9.322292	alongside
-6.20309	aloud	-0.1417572
-6.50412	alpert	-0.1868149
-6.50412	alpha	-0.1868142
-5.902061	alphabet	-0.1344966
-6.026999	alpine	-0.3171445
-6.50412	alps	-0.1816477
-3.812155	already	-0.2182286
-4.924337	alright	-0.2685432
-5.902061	alrighty	-0.2448009
-5.902061	alsatian	-0.26545
-3.223997	also	-0.2201608
-6.20309	alta	-0.151949
-9.322292	altadena
-6.50412	altar	-0.1846613
-6.50412	alter	-0.1775512
-9.322292	alteration
-6.50412	alterations	-0.1726889
-6.50412	altered	-0.1834622
-6.20309	altering	-0.1723159
-5.248848	alternate	-0.157439
-6.50412	alternated	-0.1846613
-6.20309	alternately	-0.151906
-5.805151	alternates	-0.1407913
-6.50412	alternating	-0.1868027
-4.779844	alternative	-0.2930114
-5.390177	alternatives	-0.2527075
-5.424939	alternator	-0.1738443
-6.50412	alters	-0.1860336
-3.79063	although	-0.750914
-6.026999	altitude	-0.132885
-6.50412	altitudes	-0.1519722
-9.322292	altman
-9.322292	altman's
-5.725969	alto	-0.2065969
-5.248848	altogether	-0.2981982
-9.322292	alton
-6.20309	altoona	-0.1864374
-6.50412	altruistic	-0.1763181
-6.026999	altrusa	-0.5775957
-9.322292	altzheimer's
-6.50412	alum	-0.1860973
-6.50412	aluminium	-0.1867751
-4.302723	aluminum	-0.592353
-6.20309	alumnae	-0.151971
-6.20309	alumni	-0.1781303
-6.50412	alums	-0.1868088
-6.50412	alvarez	-0.1726889
-6.20309	alvin	-0.1519716
-6.20309	alway	-0.1853227
-3.087313	always	-0.3149483
-5.725969	alzheimer	-0.1457975
-4.972641	alzheimer's	-0.536292
-3.386849	am	-0.5408124
-6.50412	amaco	-0.1726889
-6.50412	amanda	-0.1868149
-9.322292	amanpour
-6.50412	amaretta	-0.1843654
-5.248848	amarillo	-0.1883282
-6.50412	amaryllis	-0.1519722
-5.50412	amateur	-0.2253894
-5.725969	amateurs	-0.2073618
-6.026999	amaze	-0.5768018
-4.574701	amazed	-0.5712206
-9.322292	amazement
-5.273671	amazes	-1.254456
-4.055414	amazing	-0.5728916
-5.424939	amazingly	-0.2747383
-9.322292	amazon
-5.725969	ambassador	-0.3242906
-9.322292	ambassadors
-9.322292	amber
-6.026999	ambiance	-0.172166
-6.50412	ambience	-0.1866553
-9.322292	ambiguity
-9.322292	ambiguous
-5.659022	ambition	-0.1443258
-6.50412	ambitions	-0.1781593
-5.50412	ambitious	-0.1843745
-9.322292	ambivalence
-5.50412	ambivalent	-0.2392162
-5.725969	ambulance	-0.1661513
-9.322292	ambulances
-5.725969	ambulatory	-0.1592561
-9.322292	ambush
-9.322292	ambushed
-6.50412	amdahl	-0.1726889
-6.20309	amelia	-0.4063768
-9.322292	ameliorating
-6.50412	amen	-0.1519722
-9.322292	amend
-6.50412	amended	-0.1781593
-9.322292	amending
-5.659022	amendment	-0.1834735
-6.026999	amendments	-0.1451703
-5.462728	amenities	-0.2687498
-4.196624	america	-0.3311201
-5.123909	america's	-0.2983001
-3.799112	american	-0.4293245
-6.026999	american's	-0.1723227
-6.50412	american-type	-0.1519722
-6.50412	americana	-0.1726889
-6.026999	americanism	-0.1485343
-9.322292	americanisms
-6.20309	americanized	-0.1559555
-4.478815	americans	-0.2519855
-9.322292	americans'
-6.50412	americard	-0.1867802
-6.50412	americas	-0.1868006
-9.322292	ames
-6.50412	amguard	-0.1519722
-5.659022	amherst	-0.2963586
-9.322292	amid
-9.322292	amidst
-5.161697	amiga	-0.2142988
-6.50412	amiga's	-0.1742224
-6.50412	amigas	-0.1863272
-6.50412	amin	-0.1837072
-9.322292	amir
-5.902061	amish	-0.4425024
-6.50412	amiss	-0.1860973
-9.322292	amman
-6.026999	ammon	-0.1415289
-6.50412	ammonia	-0.1868149
-5.50412	ammunition	-0.3027259
-5.60103	amnesia	-0.1611699
-6.026999	amnesty	-0.1758199
-9.322292	amnio
-6.50412	amoeba	-0.1846613
-9.322292	amok
-4.832023	among	-0.3678038
-5.50412	amongst	-0.3509444
-6.50412	amoral	-0.1519722
-9.322292	amos
-3.809515	amount	-0.8547382
-6.20309	amounted	-0.3969582
-4.870652	amounts	-0.6824977
-6.50412	amp	-0.1773962
-9.322292	ampato
-6.50412	amperage	-0.1781593
-6.026999	amphetamines	-0.2700948
-9.322292	amphibious
-6.20309	ample	-0.1858579
-9.322292	amplification
-9.322292	amplified
-6.50412	amplifier	-0.1781593
-6.50412	amplifiers	-0.1846613
-9.322292	amplify
-6.50412	amputated	-0.1846613
-6.026999	amrein's	-0.1723459
-6.026999	amsterdam	-0.5776178
-6.026999	amtrak	-0.1405712
-6.50412	amuse	-0.1864886
-6.50412	amused	-0.1863461
-5.60103	amusement	-0.5174065
-5.725969	amusing	-0.2179381
-5.902061	amway	-0.1576925
-5.60103	amy	-0.4203755
-2.792145	an	-0.656623
-6.50412	ana	-0.1867855
-6.50412	anachro	-0.1868141
-6.026999	anaerobic	-0.3200368
-6.50412	anagram	-0.1866413
-5.902061	anaheim	-0.1495359
-6.50412	anality	-0.1867774
-9.322292	analogous
-5.805151	analogy	-0.1372712
-6.50412	analyses	-0.1796803
-5.012759	analysis	-0.2924116
-5.659022	analyst	-0.3362805
-6.026999	analysts	-0.1821789
-6.20309	analytical	-0.1772765
-5.60103	analyze	-0.2360113
-9.322292	analyzed
-6.026999	analyzing	-0.1597383
-6.20309	anarchy	-0.1832028
-6.50412	anatomy	-0.1828703
-6.50412	ancestor	-0.1781593
-5.462728	ancestors	-0.1826684
-6.50412	ancestral	-0.1868131
-5.659022	anchor	-0.1617054
-9.322292	anchorage
-9.322292	anchored
-6.20309	anchoring	-0.1772548
-5.725969	anchors	-0.116412
-6.50412	anchovies	-0.1726889
-5.462728	ancient	-0.1980754
-6.50412	ancients	-0.1866037
-1.494805	and	-0.3808281
-6.50412	and-a-half	-0.1867918
-9.322292	anday
-6.50412	andean	-0.1867722
-9.322292	anders
-9.322292	andersen
-5.60103	anderson	-0.2670344
-6.20309	andover	-0.151528
-6.50412	andre	-0.1868149
-9.322292	andrea
-9.322292	andreas
-9.322292	andrei
-9.322292	andres
-5.902061	andrew	-0.4063762
-9.322292	andrew's
-6.026999	andrews	-0.2787914
-5.902061	ands	-0.2654414
-5.549878	andy	-0.2982433
-6.50412	anecdotal	-0.186805
-6.20309	anecdote	-0.1492227
-6.20309	anecdotes	-0.1726404
-9.322292	anemic
-9.322292	anesthesia
-6.50412	aneurysm	-0.1726889
-6.50412	aneurysms	-0.1839326
-9.322292	anew
-9.322292	ang
-6.50412	ange	-0.1519722
-5.659022	angel	-0.2775917
-6.026999	angela	-0.1419253
-4.725969	angeles	-0.2609369
-6.50412	angelo	-0.1866233
-6.026999	angels	-0.1327145
-5.390177	anger	-0.2271135
-9.322292	angered
-6.50412	angering	-0.1773962
-6.20309	angie	-0.1503299
-9.322292	angioplasty
-5.248848	angle	-0.2629247
-6.50412	angled	-0.1857979
-6.20309	anglers	-0.1867265
-6.20309	angles	-0.149638
-5.549878	anglo	-0.2212796
-9.322292	angola
-6.50412	angolan	-0.1868141
-6.026999	angora	-0.148756
-9.322292	angrily
-4.947818	angry	-0.247531
-9.322292	angst
-6.20309	anguish	-0.1704637
-6.50412	anguished	-0.1706273
-6.50412	anguishing	-0.1864084
-9.322292	angus
-4.61763	animal	-0.2575712
-6.20309	animal's	-0.1816433
-4.491283	animals	-0.4155874
-5.60103	animated	-0.2201731
-5.549878	animation	-0.1745178
-6.50412	animosities	-0.1519722
-6.50412	animosity	-0.186753
-6.20309	anita	-0.406367
-9.322292	ankara
-5.273671	ankle	-0.2420948
-5.50412	ankles	-0.276767
-6.50412	anklet	-0.1866413
-6.50412	anklets	-0.1726889
-5.142393	ann	-0.6725634
-6.50412	anna	-0.183389
-9.322292	annabel
-5.902061	annapolis	-0.148986
-6.20309	anne	-0.186814
-9.322292	anne's
-9.322292	annenberg
-9.322292	annetta
-6.50412	annette	-0.1868147
-9.322292	annette's
-6.50412	annex	-0.1868134
-5.902061	annie	-0.6807231
-9.322292	annie's
-6.20309	annihilated	-0.1383109
-9.322292	anniversaries
-5.225367	anniversary	-0.1946988
-5.902061	announce	-0.1570187
-5.123909	announced	-0.2558389
-6.20309	announcement	-0.1805414
-6.20309	announcements	-0.1503995
-6.50412	announcer	-0.1763181
-6.20309	announcers	-0.1405868
-9.322292	announces
-6.20309	announcing	-0.1804724
-5.805151	annoy	-0.3316543
-5.805151	annoyance	-0.1342775
-5.725969	annoyed	-0.2364663
-5.225367	annoying	-0.2226271
-5.725969	annoys	-0.9384931
-4.788117	annual	-0.5090152
-6.50412	annualized	-0.1868119
-5.902061	annually	-0.169895
-6.026999	annuals	-0.3035177
-6.20309	annuities	-0.1425855
-5.357992	annuity	-0.2725752
-6.50412	anointed	-0.1848779
-6.20309	anomalies	-0.1501137
-9.322292	anomaly
-9.322292	anonymity
-6.026999	anonymous	-0.1859407
-6.50412	anonymously	-0.1846613
-9.322292	anorexia
-3.307392	another	-0.3378213
-6.50412	another's	-0.1866697
-6.20309	ansi	-0.4062536
-4.209654	answer	-0.5185536
-6.50412	answer's	-0.1519722
-5.424939	answered	-0.2580459
-4.960052	answering	-0.800737
-4.960052	answers	-0.2516335
-6.50412	ant	-0.1868133
-9.322292	antagonism
-6.20309	antarctica	-0.1750486
-5.902061	antares	-0.2343226
-6.026999	ante	-0.1849959
-6.20309	anteks	-0.151972
-5.725969	antenna	-0.08762575
-6.50412	antenna's	-0.1851055
-9.322292	antennae
-5.725969	antennas	-0.1672632
-6.50412	anthem	-0.1706273
-6.50412	anthologies	-0.1851287
-9.322292	anthology
-5.462728	anthony	-0.3893026
-6.50412	anthony's	-0.1867923
-9.322292	anthro
-9.322292	anthropologist
-6.20309	anthropology	-0.1854069
-5.273671	anti	-0.2180372
-6.20309	anti-beach	-0.3715342
-6.50412	anti-capitalism	-0.1816477
-9.322292	anti-coagulant
-6.50412	anti-communist	-0.1763181
-6.50412	anti-crime	-0.1831002
-6.50412	anti-development	-0.1519722
-6.20309	anti-drug	-0.1867442
-6.50412	anti-government	-0.1868095
-6.50412	anti-gun	-0.1867929
-5.60103	anti-lock	-0.7344018
-6.20309	anti-metric	-0.1868054
-6.20309	anti-pollution	-0.1864176
-6.20309	anti-smog	-0.1864179
-6.50412	anti-social	-0.1864844
-6.50412	anti-supporters	-0.1706273
-6.026999	anti-tank	-0.1867413
-6.20309	anti-tax	-0.182906
-6.50412	anti-trade	-0.1864195
-6.20309	anti-war	-0.1856782
-9.322292	antibiotic
-6.026999	antibiotics	-0.2700948
-6.50412	antibody	-0.1867657
-5.390177	anticipate	-0.1866504
-6.20309	anticipated	-0.1795304
-5.805151	anticipating	-0.1998658
-6.50412	anticipation	-0.1796803
-9.322292	antics
-5.902061	antifreeze	-0.1179601
-6.20309	antigen	-0.1722718
-6.50412	antihistamine	-0.1706273
-6.50412	antihistamines	-0.1868149
-6.50412	antiquated	-0.1775512
-5.357992	antique	-0.202077
-5.902061	antiques	-0.2222841
-6.50412	antiseptic	-0.1781593
-9.322292	antithesis
-6.20309	antithetical	-0.3969582
-6.20309	antlers	-0.1703004
-6.20309	antone	-0.1744504
-4.521849	antonio	-0.4424067
-6.50412	antonio's	-0.1848888
-5.462728	ants	-0.2206995
-9.322292	anwar
-6.50412	anxieties	-0.1857976
-9.322292	anxiety
-9.322292	anxiety-ridden
-5.056962	anxious	-0.8117791
-9.322292	anxiously
-2.906754	any	-0.3662053
-9.322292	anya
-9.322292	anya's
-3.792313	anybody	-0.4269498
-5.248848	anybody's	-0.153288
-4.748245	anyhow	-0.3613566
-3.760611	anymore	-0.7129225
-4.167661	anyone	-0.3986502
-5.725969	anyone's	-0.1841875
-5.328029	anyplace	-0.2673846
-3.093849	anything	-0.6967589
-6.026999	anything's	-0.3182931
-4.590306	anytime	-0.3669091
-3.434452	anyway	-0.8030624
-5.181901	anyways	-0.2815306
-4.127543	anywhere	-0.5560915
-6.50412	anywheres	-0.1859961
-6.50412	ap	-0.1726889
-9.322292	apache
-4.60103	apart	-0.3539904
-9.322292	apartheid
-4.167661	apartment	-0.4145351
-4.880871	apartments	-0.3098738
-6.026999	apathetic	-0.3186615
-5.328029	apathy	-0.179126
-9.322292	apec
-6.026999	apes	-0.1371583
-9.322292	apgar
-5.60103	apiece	-0.1932749
-5.902061	apocalypse	-0.6797128
-9.322292	apocalyptic
-5.725969	apollo	-0.1768745
-6.026999	apologetic	-0.1743431
-9.322292	apologies
-5.805151	apologize	-0.1241143
-9.322292	apologized
-9.322292	apologizing
-6.026999	apology	-0.1328798
-6.50412	apostle	-0.1868118
-9.322292	apostolate
-9.322292	apostrophe
-9.322292	apostrophes
-6.50412	appalachia	-0.1519722
-5.50412	appalachian	-0.383367
-6.50412	appalachians	-0.1519722
-5.549878	appalled	-0.3483033
-6.026999	appalling	-0.1672595
-6.50412	appallingly	-0.1519722
-6.20309	appalls	-0.4055605
-6.50412	apparatus	-0.1864413
-9.322292	apparel
-5.462728	apparent	-0.2143819
-4.196624	apparently	-0.2707133
-4.439662	appeal	-0.5081988
-5.805151	appealed	-0.2503034
-5.20309	appealing	-0.5744766
-4.850908	appeals	-0.4177215
-5.181901	appear	-0.3227302
-5.273671	appearance	-0.3105792
-6.20309	appearances	-0.1781446
-5.50412	appeared	-0.4537906
-9.322292	appearing
-5.20309	appears	-0.4458052
-6.50412	appease	-0.1742224
-9.322292	appellate
-6.50412	appellation	-0.1868125
-9.322292	appendicitis
-9.322292	appendix
-5.50412	appetite	-0.3055723
-6.50412	appetites	-0.186601
-6.50412	appetizer	-0.1519722
-5.805151	appetizers	-0.2077088
-6.50412	appetizing	-0.1742224
-5.902061	applaud	-0.2728178
-9.322292	applauded
-6.50412	applauding	-0.1726889
-9.322292	applause
-4.870652	apple	-0.254858
-6.20309	apple's	-0.186442
-6.20309	applebee's	-0.3715342
-9.322292	applebees
-5.3	apples	-0.1579026
-6.026999	applesauce	-0.1618344
-6.20309	appleseed	-0.1725094
-6.026999	appliance	-0.1704553
-5.3	appliances	-0.2093896
-5.805151	applicable	-0.4557975
-6.20309	applicant	-0.1425855
-6.20309	applicants	-0.1852594
-4.960052	application	-0.2807714
-4.985606	applications	-0.3130822
-6.50412	applicator	-0.1850212
-4.891336	applied	-0.3891627
-5.424939	applies	-0.4214258
-6.50412	appliqued	-0.1851529
-6.50412	appliques	-0.1846403
-4.822879	apply	-0.4734984
-5.273671	applying	-0.5833318
-6.50412	appoint	-0.1854523
-5.390177	appointed	-0.1361217
-6.50412	appointee	-0.1846613
-6.50412	appointee's	-0.1706273
-6.20309	appointees	-0.1492227
-6.50412	appointing	-0.1854523
-5.225367	appointment	-0.2630619
-9.322292	appointment's
-5.60103	appointments	-0.1503364
-5.549878	appraisal	-0.2112316
-6.50412	appraisals	-0.1726889
-6.50412	appraise	-0.1773648
-5.60103	appraised	-0.3098752
-6.50412	appraiser	-0.1865001
-6.50412	appraisers	-0.1867768
-4.40721	appreciate	-0.5102556
-5.390177	appreciated	-0.264654
-6.50412	appreciates	-0.1795717
-5.60103	appreciation	-0.6629449
-5.902061	appreciative	-0.2459735
-6.50412	apprehend	-0.1866448
-6.50412	apprehended	-0.1519722
-9.322292	apprehension
-6.026999	apprehensive	-0.1710539
-6.20309	apprentice	-0.1850152
-6.50412	apprentices	-0.1816477
-4.832023	approach	-0.2815854
-5.60103	approached	-0.3878741
-5.659022	approaches	-0.1954584
-5.60103	approaching	-0.2110193
-4.691207	appropriate	-0.2964996
-6.50412	appropriated	-0.1843654
-5.902061	appropriately	-0.150113
-9.322292	appropriation
-9.322292	appropriations
-5.659022	approval	-0.1174248
-5.161697	approve	-0.4665754
-5.181901	approved	-0.2587633
-9.322292	approves
-6.50412	approving	-0.1865271
-6.50412	approximate	-0.1868059
-5.390177	approximately	-0.287746
-9.322292	approximation
-6.50412	apricot	-0.1868145
-4.779844	april	-0.3888152
-6.50412	apron	-0.1796803
-6.50412	aprons	-0.1726889
-6.50412	apropos	-0.1773962
-6.50412	apso	-0.1775512
-5.328029	apt	-1.34464
-5.725969	aptitude	-0.191213
-6.50412	aptitudes	-0.1867029
-6.50412	aptly	-0.1742224
-6.20309	aqua	-0.1867459
-6.50412	aquacise	-0.1864413
-5.3	aquarium	-0.4279868
-6.20309	aquariums	-0.392251
-6.20309	aquatics	-0.3715342
-5.123909	arab	-0.3601995
-6.50412	arab-israeli	-0.1868117
-5.10618	arabia	-0.3067513
-6.026999	arabian	-0.1867964
-6.50412	arabians	-0.18645
-5.805151	arabic	-0.183314
-5.273671	arabs	-0.2576293
-6.50412	arafat	-0.1726889
-9.322292	arafat's
-6.50412	aranca	-0.1868126
-5.805151	aransas	-0.3367195
-5.902061	arapaho	-0.2321317
-6.026999	arbitrarily	-0.1767288
-6.50412	arbitrary	-0.1867477
-9.322292	arbitration
-6.50412	arbitrator	-0.1706273
-6.50412	arbor	-0.1833151
-6.50412	arboretum	-0.1773962
-6.20309	arbuckle	-0.4063503
-6.20309	arbuckles	-0.1713605
-5.805151	arby's	-0.3367005
-9.322292	arc
-6.50412	arcade	-0.1866413
-9.322292	arcane
-6.20309	arch	-0.1860252
-9.322292	archaeological
-6.50412	archaeologists	-0.1519722
-6.50412	archaeology	-0.1519722
-6.20309	archaic	-0.1704837
-9.322292	archbishop
-9.322292	archdiocese
-6.20309	archeology	-0.1726376
-6.20309	archer	-0.1517889
-6.50412	archery	-0.1726889
-5.60103	archie	-0.2463732
-5.50412	architect	-0.1832166
-6.20309	architects	-0.1842776
-6.20309	architectural	-0.1868048
-6.20309	architecture	-0.1742198
-9.322292	archive
-6.50412	archives	-0.1816477
-6.20309	arco	-0.1850573
-9.322292	arctic
-9.322292	ardent
-6.50412	ardmore	-0.1706273
-2.379551	are	-0.4890509
-3.338876	area	-0.6736656
-6.026999	area's	-0.1867278
-3.947818	areas	-0.6602038
-3.758265	aren't	-0.3541183
-5.328029	arena	-0.3438212
-9.322292	arenas
-6.50412	arequipa	-0.1519722
-5.123909	argentina	-0.4188276
-6.50412	argentina's	-0.1848887
-6.026999	argentine	-0.1859599
-6.026999	argentinean	-0.1832552
-6.20309	arguable	-0.1830613
-6.20309	arguably	-0.1817675
-5.012759	argue	-0.5066217
-6.20309	argued	-0.1821026
-6.20309	argues	-0.1847474
-5.181901	arguing	-0.1892875
-4.748245	argument	-0.2845958
-9.322292	argumentative
-5.089147	arguments	-0.2267294
-9.322292	ari
-9.322292	arianna
-6.20309	arias	-0.1629552
-5.902061	arid	-0.2657248
-9.322292	ariel
-9.322292	ariella
-5.725969	aries	-0.202087
-9.322292	arimay
-9.322292	aris
-6.026999	arise	-0.1451703
-9.322292	arisen
-6.20309	arises	-0.3715342
-9.322292	arising
-9.322292	aristide
-9.322292	aristide's
-5.902061	arithmetic	-0.2427127
-4.740692	arizona	-0.3767274
-6.50412	arizona's	-0.186771
-5.902061	ark	-0.1591527
-4.788117	arkansas	-0.3374041
-9.322292	arlen
-6.50412	arlene	-0.1868149
-4.665271	arlington	-0.3153552
-6.20309	arlington's	-0.184645
-9.322292	arlita
-4.711729	arm	-0.2365211
-6.50412	armadillo	-0.1834669
-6.20309	armadillos	-0.1698835
-6.50412	armageddon	-0.1855377
-6.20309	armaments	-0.1419254
-6.50412	armchair	-0.1775512
-5.089147	armed	-0.3112328
-9.322292	armen
-6.20309	armenia	-0.136645
-6.20309	armenian	-0.4063676
-6.50412	armenians	-0.1828703
-6.50412	armey	-0.1834669
-6.50412	armey's	-0.1867823
-6.50412	armies	-0.185972
-6.50412	arming	-0.1864886
-9.322292	armistice
-6.20309	armoire	-0.1773261
-6.20309	armor	-0.1519719
-9.322292	armored
-4.725969	arms	-0.3412266
-9.322292	armstrong
-4.671611	army	-0.264504
-6.50412	army's	-0.1848888
-9.322292	arnelle
-6.50412	arnet	-0.1837072
-6.20309	arnett	-0.1722654
-5.424939	arnold	-0.6224601
-6.50412	arnold's	-0.1726889
-6.50412	aromas	-0.1837765
-6.50412	aromatic	-0.1868149
-9.322292	aron
-6.20309	arose	-0.136645
-3.088813	around	-0.6465345
-6.50412	aroused	-0.1852362
-6.50412	arquett	-0.1837072
-9.322292	arraigned
-9.322292	arraignment
-5.462728	arrange	-0.2013585
-5.549878	arranged	-0.2504733
-5.225367	arrangement	-0.1647456
-5.181901	arrangements	-0.2634422
-6.50412	arranger	-0.1775512
-5.805151	arranging	-0.2564828
-5.902061	array	-0.4320065
-5.424939	arrest	-0.2230136
-5.3	arrested	-0.3554533
-6.20309	arresting	-0.1856731
-6.20309	arrests	-0.392251
-6.50412	arrival	-0.1775512
-6.50412	arrivals	-0.1865195
-5.902061	arrive	-0.1801892
-5.805151	arrived	-0.1810738
-6.20309	arrives	-0.1748965
-6.026999	arriving	-0.1850018
-6.50412	arrogance	-0.1763181
-5.805151	arrogant	-0.2562212
-5.659022	arrow	-0.1319295
-6.50412	arrowheads	-0.1726889
-6.026999	arrows	-0.1675571
-5.805151	arsenal	-0.1364386
-6.50412	arsenals	-0.1519722
-9.322292	arsenault
-6.026999	arsenic	-0.132885
-5.659022	arsenio	-0.3798448
-9.322292	arsenio's
-9.322292	arson
-9.322292	arsonists
-4.69794	art	-0.2661951
-6.50412	art's	-0.1816477
-5.805151	arteries	-0.240447
-5.902061	arteriosclerosis	-0.2648916
-6.026999	artery	-0.5776091
-5.20309	arthritis	-0.321629
-5.902061	arthur	-0.1843634
-6.50412	arthur's	-0.1868133
-5.805151	artichoke	-0.3434194
-6.20309	artichokes	-0.1816454
-4.499799	article	-0.4840516
-4.646788	articles	-0.4281273
-9.322292	articulate
-9.322292	articulated
-9.322292	articulating
-9.322292	artifact
-6.50412	artifacts	-0.1816477
-5.725969	artificial	-0.3396436
-6.50412	artificially	-0.1868142
-9.322292	artillery
-5.026999	artist	-0.2370956
-9.322292	artist's
-5.725969	artistic	-0.1458013
-5.424939	artists	-0.197829
-4.763758	arts	-0.4062478
-5.902061	artsy	-0.1771455
-6.50412	artwork	-0.1842781
-9.322292	arty
-9.322292	arty's
-6.026999	aruba	-0.1726029
-9.322292	aryan
-2.52924	as	-0.6271653
-9.322292	asahara
-6.50412	asbestos	-0.1868133
-6.50412	ascended	-0.1773962
-6.50412	ascertain	-0.1742224
-6.50412	asceticism	-0.1519722
-9.322292	ascher
-5.549878	ash	-0.2089689
-5.725969	ashamed	-0.3206608
-9.322292	ashe
-6.50412	ashes	-0.1726889
-6.50412	asheville	-0.1862597
-9.322292	ashfield
-9.322292	ashford
-9.322292	ashis
-5.902061	ashley	-0.1608112
-9.322292	ashore
-9.322292	ashrawi
-9.322292	ashtec's
-6.50412	ashtray	-0.1763181
-6.50412	ashville	-0.1519722
-5.357992	asia	-0.2839962
-5.273671	asian	-0.2068184
-5.50412	asians	-0.1085758
-4.590306	aside	-0.5180318
-9.322292	asides
-5.60103	asimov	-0.1623128
-6.50412	asimov's	-0.1706273
-6.50412	asinine	-0.1864916
-3.977781	ask	-0.7022793
-4.157767	asked	-0.7537744
-4.530993	asking	-0.4920963
-5.390177	asks	-0.2014269
-4.998971	asleep	-0.2652879
-5.60103	asparagus	-0.2727248
-4.623307	aspect	-0.6195189
-4.972641	aspects	-0.423517
-5.60103	aspen	-0.2475921
-5.549878	asphalt	-0.2018472
-6.50412	asphyxiate	-0.1868142
-9.322292	aspin
-9.322292	aspin's
-6.50412	aspiration	-0.1855292
-6.50412	aspirations	-0.183734
-9.322292	aspire
-9.322292	aspired
-6.026999	aspirin	-0.1628804
-9.322292	aspiring
-5.725969	ass	-0.3230046
-9.322292	assad
-6.50412	assailant	-0.1781593
-9.322292	assailants
-9.322292	assassin
-6.026999	assassinate	-0.3073361
-6.50412	assassinated	-0.186162
-5.805151	assassination	-0.11651
-6.50412	assassinations	-0.1726889
-9.322292	assassins
-5.248848	assault	-0.3779517
-6.026999	assaulted	-0.1516473
-6.20309	assaulting	-0.1513396
-6.026999	assaults	-0.1630411
-6.20309	assemble	-0.185353
-5.805151	assembled	-0.3324747
-6.20309	assembling	-0.1723159
-5.390177	assembly	-0.2850479
-6.50412	assemblyman	-0.1854274
-9.322292	assert
-9.322292	asserted
-9.322292	asserting
-9.322292	assertion
-9.322292	assertions
-6.026999	assertive	-0.1613439
-6.50412	asses	-0.1816477
-5.725969	assess	-0.3163837
-6.026999	assessed	-0.1473981
-6.50412	assesses	-0.1742224
-6.20309	assessing	-0.1716107
-5.902061	assessment	-0.2653864
-9.322292	assessments
-5.805151	asset	-0.4822673
-5.50412	assets	-0.2419071
-9.322292	asshole
-6.50412	assholes	-0.1781593
-5.60103	assign	-0.2452861
-5.424939	assigned	-0.2585135
-6.50412	assigning	-0.1854523
-9.322292	assignment
-5.424939	assignments	-0.3100278
-9.322292	assimilate
-6.50412	assimilated	-0.18636
-6.026999	assist	-0.302352
-5.041722	assistance	-0.20988
-4.924337	assistant	-0.3343563
-5.424939	assistants	-0.1584522
-6.026999	assistantship	-0.181437
-6.20309	assisted	-0.1857338
-6.50412	assisting	-0.1854523
-6.50412	assists	-0.1868142
-5.273671	associate	-0.2750684
-4.998971	associated	-1.018283
-5.725969	associates	-0.1267653
-6.50412	associating	-0.1850212
-4.913056	association	-0.2835271
-9.322292	association's
-5.549878	associations	-0.1918589
-6.20309	assorted	-0.18681
-6.20309	assortment	-0.1441182
-4.60103	assume	-0.4211281
-5.012759	assumed	-0.47324
-6.026999	assumes	-0.3071867
-5.328029	assuming	-0.7115447
-5.462728	assumption	-0.4843104
-6.50412	assumptions	-0.1781593
-9.322292	assurance
-9.322292	assurances
-5.902061	assure	-0.2503239
-5.659022	assured	-0.2855432
-6.50412	assuredly	-0.1519722
-9.322292	assures
-9.322292	assuring
-6.20309	astaire	-0.1861504
-9.322292	asteroid
-5.725969	asthma	-0.2468044
-6.50412	asthmatic	-0.1726889
-6.026999	astonia	-0.3042625
-6.20309	astonished	-0.1765617
-6.50412	astonishes	-0.1519722
-6.50412	astonishing	-0.1848896
-6.50412	astound	-0.1763181
-5.725969	astounded	-0.1203188
-5.902061	astounding	-0.2626469
-6.50412	astounds	-0.1859985
-6.50412	astray	-0.1519722
-5.805151	astro	-0.2456389
-6.50412	astrodome	-0.1519722
-6.50412	astronaut	-0.1846613
-6.026999	astronauts	-0.1717086
-9.322292	astronomer
-6.50412	astronomers	-0.1846403
-5.390177	astronomical	-0.3213919
-6.20309	astronomy	-0.1781071
-5.60103	astros	-0.1762462
-6.20309	astute	-0.1852354
-9.322292	aswa
-5.902061	asylum	-0.1680782
-9.322292	asyrinsure
-2.496202	at	-0.8551556
-6.50412	at's	-0.1867424
-6.20309	atari	-0.1867387
-6.50412	atchafalaya	-0.1857813
-6.50412	atchafalaya's	-0.1853902
-4.725969	ate	-0.3183536
-9.322292	athens
-5.142393	athlete	-0.1419154
-5.161697	athletes	-0.2118999
-5.273671	athletic	-0.1974015
-5.273671	athletics	-0.2750349
-9.322292	atkins
-4.540332	atlanta	-0.3191512
-6.026999	atlanta's	-0.1760502
-5.357992	atlantic	-0.435657
-9.322292	atlantis
-4.482931	atmosphere	-0.3230037
-6.026999	atmosphere's	-0.1835378
-6.50412	atmospheres	-0.1763181
-9.322292	atmospheric
-9.322292	atom
-6.026999	atomic	-0.5776168
-9.322292	atoms
-6.50412	atone	-0.1842781
-9.322292	atonement
-9.322292	atop
-9.322292	atrium
-9.322292	atrium-type
-5.725969	atrocious	-0.2518772
-5.805151	atrocities	-0.2454923
-6.026999	atrocity	-0.1596644
-5.725969	attach	-0.1548794
-6.20309	attache	-0.4063069
-4.763758	attached	-0.7156217
-6.50412	attaches	-0.1773962
-6.50412	attaching	-0.1773648
-5.60103	attachment	-0.2508056
-6.026999	attachments	-0.1745392
-4.902061	attack	-0.2499958
-5.549878	attacked	-0.1556662
-9.322292	attacker
-9.322292	attackers
-5.725969	attacking	-0.3075822
-5.248848	attacks	-0.258453
-6.20309	attain	-0.1795702
-6.50412	attained	-0.1795717
-6.50412	attaining	-0.1773648
-5.072757	attempt	-0.5910402
-5.659022	attempted	-0.1499189
-5.805151	attempting	-0.3357963
-5.50412	attempts	-0.5094631
-6.50412	attenborough	-0.1519722
-5.181901	attend	-0.2062518
-6.026999	attendance	-0.1588019
-5.805151	attendant	-0.1687932
-9.322292	attendants
-5.725969	attended	-0.3190414
-5.462728	attending	-0.2509575
-9.322292	attends
-4.179838	attention	-0.6327549
-6.50412	attention's	-0.1848888
-6.50412	attentions	-0.1865249
-5.805151	attentive	-0.1968492
-9.322292	attest
-5.328029	attic	-0.2359262
-6.50412	attica	-0.1834669
-5.725969	attire	-0.2479609
-4.383546	attitude	-0.4652501
-6.20309	attitude's	-0.1864283
-4.960052	attitudes	-0.3291899
-9.322292	attkisson
-5.273671	attleboro	-0.3976057
-4.779844	attorney	-0.2963244
-6.20309	attorney's	-0.1843578
-5.056962	attorneys	-0.1837038
-5.273671	attract	-0.2666479
-5.424939	attracted	-0.641523
-9.322292	attracting
-5.20309	attraction	-0.1828074
-6.20309	attractions	-0.1405868
-5.142393	attractive	-0.2785302
-6.50412	attractiveness	-0.1839326
-5.805151	attracts	-0.1727576
-9.322292	attributable
-6.50412	attribute	-0.1863004
-6.20309	attributed	-0.1608467
-6.20309	attributes	-0.136645
-6.20309	attrition	-0.1824265
-6.50412	attuned	-0.1773962
-9.322292	atwood
-5.60103	au	-0.3402292
-6.50412	aubrey	-0.1868144
-5.462728	auburn	-0.4431398
-5.328029	auction	-0.1606419
-5.902061	auctioned	-0.2788265
-6.50412	auctioning	-0.1855651
-6.50412	auctions	-0.1726889
-6.50412	audelia	-0.1868145
-9.322292	auderburn
-5.60103	audi	-0.1334341
-6.50412	audi's	-0.1868077
-6.50412	audible	-0.1868115
-5.089147	audience	-0.08219999
-9.322292	audiences
-5.725969	audio	-0.2338394
-6.50412	audiology	-0.1519722
-6.20309	audis	-0.1493173
-5.805151	audit	-0.3686599
-6.20309	audited	-0.1857441
-6.50412	auditing	-0.1868076
-6.50412	audition	-0.1831002
-9.322292	auditioned
-6.20309	auditions	-0.1794659
-5.60103	auditor	-0.1540904
-5.902061	auditorium	-0.1448715
-6.20309	auditors	-0.1708357
-6.50412	auditory	-0.1866413
-6.20309	audits	-0.1483432
-6.50412	audrey	-0.1868147
-6.50412	auel	-0.1742224
-6.50412	augmon	-0.1519722
-6.50412	augmon's	-0.1773648
-9.322292	augsburg
-4.69794	august	-0.3183963
-6.50412	augusta	-0.1868034
-5.225367	augustine	-0.2196354
-6.50412	aukomo	-0.1763181
-9.322292	aum
-4.924337	aunt	-0.3665562
-6.20309	aunt's	-0.1864763
-9.322292	auntie
-5.089147	aunts	-0.8751581
-9.322292	aura
-9.322292	aurora
-9.322292	auschwitz
-9.322292	auspices
-6.026999	austen	-0.1479762
-9.322292	austerity
-4.410698	austin	-0.3102258
-6.20309	austin's	-0.1757511
-5.142393	australia	-0.1276933
-5.805151	australian	-0.2617243
-6.50412	australians	-0.1843834
-5.60103	austria	-0.1384129
-6.50412	austrian	-0.1726889
-9.322292	austrikan
-5.60103	authentic	-0.162426
-6.20309	authenticity	-0.3992423
-9.322292	auther
-5.161697	author	-0.2209747
-6.50412	author's	-0.1867276
-9.322292	authored
-6.50412	authoritarian	-0.1865462
-6.50412	authoritative	-0.1846403
-5.424939	authorities	-0.1711544
-4.960052	authority	-0.2457829
-6.50412	authorization	-0.1726889
-6.026999	authorize	-0.1851497
-6.026999	authorized	-0.1803033
-9.322292	authorizing
-5.424939	authors	-0.1128252
-6.50412	autistic	-0.1865705
-4.788117	auto	-0.4440684
-6.50412	autobahn	-0.183734
-9.322292	autobiographical
-6.50412	autobiographies	-0.1519722
-6.026999	autobiography	-0.1286284
-6.50412	autocad	-0.1706273
-6.50412	autocrat	-0.1519722
-6.20309	autocross	-0.1867997
-6.20309	autocrossing	-0.403029
-6.20309	autograph	-0.151409
-6.50412	autographs	-0.1833151
-6.50412	automakers	-0.1842781
-5.549878	automated	-0.2752753
-4.421335	automatic	-0.5009031
-4.691207	automatically	-0.1915962
-6.20309	automatics	-0.392251
-5.805151	automation	-0.3768063
-4.755932	automobile	-0.2771759
-4.733268	automobiles	-0.2635912
-5.328029	automotive	-0.3242125
-6.50412	automotives	-0.1841726
-9.322292	autonomous
-9.322292	autonomy
-6.50412	autopilot	-0.1846403
-9.322292	autopsies
-9.322292	autopsy
-9.322292	autorad
-9.322292	autorads
-9.322292	autos
-6.20309	autry	-0.1705154
-5.902061	autumn	-0.1756894
-6.20309	auxiliary	-0.1868017
-9.322292	avail
-5.50412	availability	-0.3796075
-4.167661	available	-0.470437
-6.20309	avalanche	-0.1690073
-5.725969	avalon	-0.1956388
-9.322292	avalon's
-6.20309	avant-garde	-0.1867224
-5.357992	avenue	-0.2131616
-5.659022	avenues	-0.1777015
-4.236948	average	-0.250083
-5.805151	averaged	-0.2512268
-5.902061	averages	-0.1725625
-5.805151	averaging	-0.2564068
-9.322292	avert
-9.322292	averted
-6.50412	avery	-0.1706273
-9.322292	avi
-6.50412	avia	-0.1775512
-9.322292	aviano
-6.50412	aviaries	-0.1519722
-6.50412	aviary	-0.1781593
-5.805151	aviation	-0.1380184
-6.50412	aviators	-0.1864084
-4.998971	avid	-0.3397888
-6.20309	avionics	-0.3715342
-5.725969	avis	-0.2870446
-9.322292	aviv
-6.50412	avocado	-0.1868131
-6.20309	avocados	-0.1706876
-4.860668	avoid	-0.311247
-6.50412	avoidable	-0.185972
-5.357992	avoided	-0.2625777
-5.902061	avoiding	-0.1726294
-6.50412	avoids	-0.1856536
-5.725969	avon	-0.3061164
-9.322292	avsham's
-6.026999	aw	-0.1764352
-9.322292	awacs
-9.322292	await
-9.322292	awaited
-9.322292	awaiting
-9.322292	awaits
-5.50412	awake	-0.1952871
-6.50412	awakened	-0.1773962
-5.248848	awakening	-0.3572696
-5.549878	awakenings	-0.2779528
-5.123909	award	-0.1465197
-5.805151	awarded	-0.1520068
-5.902061	awarding	-0.160481
-5.012759	awards	-0.1751815
-4.227658	aware	-1.037904
-5.123909	awareness	-0.2690161
-9.322292	awash
-3.381577	away	-0.781068
-6.50412	aways	-0.1726889
-6.026999	awe	-0.1742901
-5.328029	awesome	-0.3042753
-4.007191	awful	-0.6322085
-4.813924	awfully	-0.3298459
-6.50412	awfulness	-0.1796803
-4.377016	awhile	-0.4698638
-5.549878	awkward	-0.3054801
-6.50412	awol	-0.1848896
-6.50412	awry	-0.1834622
-6.20309	ax	-0.3969582
-5.902061	axe	-0.2626896
-6.50412	axes	-0.1773962
-6.50412	axiom	-0.1833151
-6.20309	axle	-0.1825373
-6.50412	ayatollah	-0.1868148
-5.902061	aye	-0.2446833
-6.50412	azalea	-0.1868106
-5.549878	azaleas	-0.2651229
-9.322292	azerbaijan
-6.50412	azerbaijanis	-0.1519722
-9.322292	aziz
-9.322292	aztec
-3.831099	b	-0.9080747
-6.026999	b's	-0.1697426
-6.50412	baba	-0.1726889
-9.322292	babbitt
-6.50412	babble	-0.1846403
-6.50412	babbly	-0.1519722
-5.805151	babe	-0.2458784
-4.549878	babies	-0.3197983
-4.043222	baby	-0.2655462
-5.462728	baby's	-0.1795887
-6.50412	baby-sitting-wise	-0.1726889
-5.328029	babysat	-0.2450924
-5.072757	babysit	-0.3498563
-4.771727	babysitter	-0.3052129
-5.248848	babysitters	-0.2023161
-4.985606	babysitting	-0.2100319
-9.322292	babysitting-wise
-9.322292	bacardi
-6.50412	baccalaureate	-0.1867278
-5.60103	bach	-0.3917793
-6.50412	bach's	-0.1868144
-5.902061	bachelor	-0.1788561
-5.328029	bachelor's	-0.4565238
-6.026999	bachelors	-0.3061188
-6.026999	bachman	-0.2840643
-6.20309	bacillus	-0.1851002
-2.938863	back	-0.8534901
-6.20309	back-up	-0.1832457
-6.50412	backaches	-0.1726889
-6.026999	backbone	-0.1842575
-6.50412	backdraft	-0.1726889
-9.322292	backdrop
-5.142393	backed	-0.447951
-9.322292	backer
-6.50412	backers	-0.1796803
-6.50412	backfield	-0.1834669
-6.026999	backfire	-0.1327667
-6.20309	backfired	-0.1496153
-6.20309	backfires	-0.1344045
-6.50412	backgammon	-0.1846613
-4.313788	background	-0.2733787
-6.20309	background's	-0.181642
-5.390177	backgrounds	-0.1755654
-5.248848	backing	-0.1416056
-5.805151	backlash	-0.2508599
-6.20309	backless	-0.1844051
-6.026999	backlog	-0.3109405
-6.20309	backlogged	-0.177345
-5.20309	backpack	-0.284731
-6.20309	backpacked	-0.136645
-6.50412	backpacker	-0.1726889
-5.10618	backpacking	-0.2017329
-6.50412	backpacks	-0.1726889
-6.50412	backrest	-0.1726889
-5.3	backs	-0.138926
-6.50412	backsaw	-0.1519722
-6.20309	backseats	-0.1799926
-6.20309	backside	-0.1744268
-6.50412	backslapping	-0.1519722
-6.50412	backsliding	-0.1868142
-9.322292	backstage
-5.902061	backswing	-0.1320396
-5.390177	backup	-0.3016829
-5.50412	backward	-0.1206136
-5.089147	backwards	-0.2777764
-6.50412	backwoods	-0.1867356
-4.55473	backyard	-0.4871002
-6.50412	backyard's	-0.1865557
-6.20309	backyards	-0.136645
-5.462728	bacon	-0.342439
-5.725969	bacteria	-0.1609917
-6.50412	bacterial	-0.1868123
-3.296755	bad	-0.4863279
-9.322292	baden
-9.322292	bader
-5.725969	badge	-0.125581
-6.50412	badger	-0.1519722
-6.20309	badgering	-0.3958802
-6.50412	badges	-0.1816477
-4.763758	badly	-0.1790445
-6.20309	badminton	-0.1785297
-6.50412	badness	-0.1850212
-6.50412	baffled	-0.1852362
-4.377016	bag	-0.3012105
-6.20309	bagdad	-0.1519708
-5.805151	bagels	-0.1633104
-5.902061	baggage	-0.1574543
-6.026999	bagged	-0.1668768
-6.50412	baggers	-0.1781593
-6.50412	bagging	-0.1868095
-6.50412	baggio	-0.1867085
-6.026999	baggy	-0.1859637
-5.659022	baghdad	-0.347062
-6.20309	bagpipe	-0.1828824
-6.50412	bagpipes	-0.1867744
-4.284012	bags	-0.4237625
-6.20309	bah	-0.4063768
-6.50412	bahama	-0.1851529
-5.462728	bahamas	-0.2899176
-6.50412	bahia	-0.1868024
-6.50412	bahr	-0.1853638
-9.322292	baidoa
-5.462728	bail	-0.4384355
-9.322292	bailed
-6.20309	bailey	-0.1518147
-9.322292	bailey's
-6.20309	bailiff	-0.1867314
-6.50412	bailiffs	-0.1726889
-6.20309	bailing	-0.1840229
-6.50412	bailiwick	-0.1831002
-9.322292	bailout
-9.322292	baird
-5.072757	bait	-0.2291312
-6.20309	baited	-0.1848758
-6.50412	baiting	-0.1848779
-6.026999	baits	-0.2931235
-6.50412	baja	-0.1831002
-6.50412	bajaing	-0.1726889
-4.902061	bake	-0.2894562
-4.998971	baked	-0.4322049
-5.659022	baker	-0.1364605
-9.322292	baker's
-6.50412	bakeries	-0.1864609
-6.50412	bakers	-0.1867413
-6.50412	bakersfield	-0.1726889
-5.549878	bakery	-0.3323218
-5.805151	bakes	-0.147912
-5.225367	baking	-0.2033281
-6.20309	bakker	-0.1516604
-4.50412	balance	-0.2562792
-5.161697	balanced	-0.2362199
-5.3	balances	-0.3028215
-5.549878	balancing	-0.1508784
-5.659022	balcony	-0.2197938
-6.026999	bald	-0.1519346
-6.20309	baldwin	-0.1704637
-6.20309	bale	-0.4049522
-9.322292	bali
-6.20309	baling	-0.4063734
-6.50412	balise	-0.1726889
-6.20309	balk	-0.1823365
-9.322292	balkan
-9.322292	balkans
-4.196624	ball	-0.3128989
-6.50412	ballady	-0.1846613
-6.50412	ballan	-0.1834669
-6.026999	balled	-0.3007995
-6.50412	baller	-0.1726889
-6.50412	ballerina	-0.1846613
-5.805151	ballet	-0.2358832
-6.50412	ballets	-0.1726889
-6.026999	ballgame	-0.1385547
-6.20309	ballistic	-0.1853616
-5.549878	balloon	-0.2160181
-6.026999	ballooned	-0.1839859
-5.902061	ballooning	-0.2317497
-5.50412	balloons	-0.4922178
-5.357992	ballot	-0.1754455
-6.20309	balloting	-0.3715342
-5.805151	ballots	-0.2071057
-6.50412	ballpark	-0.1816477
-9.322292	ballroom
-5.012759	balls	-0.2946179
-9.322292	bally's
-6.026999	baloney	-0.2700948
-6.20309	balsamic	-0.4063763
-5.462728	baltic	-0.9178079
-6.50412	baltics	-0.1849989
-4.569622	baltimore	-0.2589126
-6.20309	baltimore's	-0.1836038
-6.026999	bam	-0.1717001
-6.50412	bamba	-0.1831002
-5.659022	bambi	-0.2138974
-6.20309	bamboo	-0.1864179
-6.50412	bamburger's	-0.1864653
-4.79655	ban	-0.3484651
-5.462728	banana	-0.2594544
-5.3	bananas	-0.1518103
-4.310996	band	-0.3042732
-6.50412	band's	-0.1867281
-6.50412	band-aids	-0.1726889
-6.20309	bandage	-0.1839804
-9.322292	bandaged
-9.322292	bandaids
-6.50412	banded	-0.1867161
-6.50412	banding	-0.1868134
-5.902061	bandit	-0.1801537
-9.322292	bandits
-5.056962	bands	-0.1795638
-5.902061	bandwagon	-0.1548283
-6.50412	bane	-0.1796803
-6.50412	banff	-0.1846613
-5.248848	bang	-0.2724438
-6.50412	bang-up	-0.1866535
-6.50412	banged	-0.1864609
-6.50412	bangers	-0.1706273
-5.725969	banging	-0.3063629
-9.322292	bangkok
-6.026999	bangladesh	-0.1506194
-9.322292	bangor
-6.50412	bangs	-0.1519722
-6.50412	banish	-0.1775512
-6.50412	banished	-0.1795717
-9.322292	banja
-6.20309	banjo	-0.170614
-4.291933	bank	-0.2956939
-6.20309	bank's	-0.1498846
-6.20309	banked	-0.1828375
-9.322292	banker
-6.50412	bankers	-0.1828703
-5.142393	banking	-0.3336208
-5.056962	bankrupt	-0.417006
-9.322292	bankruptcies
-5.328029	bankruptcy	-0.2017106
-6.20309	bankrupted	-0.1854568
-6.50412	bankrupting	-0.1854523
-4.623307	banks	-0.3154804
-5.424939	banned	-0.2140326
-5.902061	banner	-0.4069784
-6.026999	banners	-0.296405
-5.424939	banning	-0.2858614
-6.50412	banquet	-0.1868131
-6.50412	banquets	-0.1726889
-6.026999	bans	-0.1824694
-6.50412	bantam	-0.1519722
-9.322292	bantered
-6.50412	bap	-0.183734
-6.50412	baptism	-0.1726889
-6.50412	baptisms	-0.1868038
-5.60103	baptist	-0.2604006
-6.20309	baptists	-0.392251
-9.322292	baptized
-4.659022	bar	-0.2494574
-5.805151	barb	-0.3613494
-6.50412	barbados	-0.1846613
-5.390177	barbara	-0.3262139
-6.20309	barbaric	-0.1813204
-6.50412	barbarics	-0.1775512
-4.646788	barbecue	-0.2954738
-5.805151	barbecued	-0.1343545
-6.50412	barbecueing	-0.1828703
-5.805151	barbecues	-0.2081595
-6.50412	barbed	-0.1868114
-6.20309	barbells	-0.1486328
-6.026999	barber	-0.3192128
-5.805151	barbie	-0.1849118
-9.322292	barbieri
-5.902061	barbies	-0.1293593
-6.20309	barbiturates	-0.1846609
-9.322292	barbour
-9.322292	barbra
-6.50412	barby	-0.1519722
-6.20309	barcelona	-0.1726768
-9.322292	barclay
-6.50412	barden	-0.1775512
-9.322292	bardera
-5.3	bare	-0.1776689
-6.026999	barefoot	-0.1519698
-9.322292	barefooting
-4.733268	barely	-0.2337453
-5.273671	bargain	-0.2061726
-5.902061	bargained	-0.1601891
-5.50412	bargaining	-0.1890705
-5.902061	bargains	-0.2144839
-5.805151	barge	-0.1705891
-6.20309	bargello	-0.1482587
-6.20309	barges	-0.1781017
-9.322292	barings
-6.026999	baritone	-0.1818377
-6.50412	barium	-0.1726889
-5.123909	bark	-0.3474823
-6.20309	barker	-0.1519101
-5.659022	barking	-0.115901
-9.322292	barkley
-5.424939	barks	-0.208836
-9.322292	barloon
-5.357992	barn	-0.154485
-9.322292	barnard
-9.322292	barnes
-5.805151	barney	-0.2156519
-9.322292	barney's
-6.50412	barns	-0.1831002
-9.322292	barnum
-6.50412	barnyard	-0.1857979
-9.322292	barometer
-6.20309	barometric	-0.4063602
-6.20309	baron	-0.1777476
-9.322292	baron's
-9.322292	baroness
-5.60103	baroque	-0.3409055
-9.322292	barr
-9.322292	barracks
-6.50412	barracuda	-0.1519722
-9.322292	barradino
-9.322292	barrage
-9.322292	barre
-5.805151	barred	-0.1349628
-5.10618	barrel	-0.2325854
-5.424939	barrels	-0.2743411
-6.50412	barren	-0.1726889
-9.322292	barrett
-9.322292	barricade
-6.50412	barricaded	-0.1795717
-9.322292	barricades
-9.322292	barrie
-5.328029	barrier	-0.1704833
-6.026999	barriers	-0.1518299
-6.026999	barring	-0.3097533
-6.20309	barrio	-0.1855886
-6.50412	barrios	-0.1831002
-6.50412	barron	-0.1519722
-9.322292	barroom
-6.50412	barrow	-0.1795717
-5.50412	barry	-0.2257958
-9.322292	barry's
-5.072757	bars	-0.2388754
-5.549878	bart	-0.278364
-6.50412	bart's	-0.1839326
-9.322292	bartender
-6.50412	bartenders	-0.1726889
-6.50412	bartered	-0.1848779
-6.50412	barthelme	-0.1864051
-6.20309	bartlett	-0.1519663
-9.322292	barton
-9.322292	baruch
-4.284012	base	-0.2935143
-4.163676	baseball	-0.4113039
-5.725969	baseball's	-0.1766029
-6.50412	baseballer	-0.1846613
-6.20309	baseboard	-0.136645
-6.026999	baseboards	-0.2700948
-4.271124	based	-0.7702488
-6.50412	baseline	-0.1519722
-6.50412	baseman	-0.186814
-4.711729	basement	-0.3444034
-5.10618	basements	-0.3111811
-6.50412	basenji	-0.1726889
-6.50412	basenjies	-0.1865557
-4.985606	bases	-0.2823921
-6.20309	bash	-0.1866344
-9.322292	bashed
-6.50412	bashing	-0.1726889
-4.258608	basic	-0.1889989
-3.641989	basically	-0.1847464
-5.041722	basics	-0.2522413
-5.659022	basil	-0.1821091
-6.026999	basin	-0.1730977
-6.50412	basing	-0.1861826
-6.50412	basinger	-0.1865172
-4.266074	basis	-0.54344
-5.20309	basket	-0.3522457
-4.256147	basketball	-0.4084303
-5.902061	basketball's	-0.1684006
-5.462728	baskets	-0.2184368
-9.322292	basking
-6.50412	basque	-0.1867798
-9.322292	basra
-4.595635	bass	-0.3933133
-6.026999	basset	-0.577617
-9.322292	bassett
-6.50412	bassoon	-0.1726889
-6.50412	bastard	-0.1726889
-6.50412	bastards	-0.1853902
-6.50412	bastion	-0.1796803
-6.20309	bastrop	-0.1841726
-5.225367	bat	-0.3363766
-5.50412	batch	-0.339905
-6.50412	batches	-0.1706273
-6.50412	bates	-0.1726889
-4.860668	bath	-0.2857435
-5.805151	bathe	-0.1557436
-6.20309	bathed	-0.1673497
-6.20309	bathes	-0.1729356
-5.659022	bathing	-0.474865
-4.564601	bathroom	-0.3023817
-5.248848	bathrooms	-0.2556897
-5.3	baths	-0.2847072
-5.805151	bathtub	-0.1228283
-6.50412	bathtubs	-0.1726889
-5.659022	batman	-0.1359246
-6.026999	baton	-0.1726882
-5.549878	bats	-0.4355154
-9.322292	battalion
-6.20309	batted	-0.406023
-6.20309	batter	-0.1767057
-9.322292	battered
-9.322292	batterer
-5.123909	batteries	-0.1698206
-9.322292	battering
-5.161697	battery	-0.2089467
-5.725969	batting	-0.1954586
-9.322292	battista
-5.089147	battle	-0.2363087
-6.50412	battled	-0.1868123
-9.322292	battlefield
-9.322292	battlefields
-6.20309	battleground	-0.1712554
-5.902061	battles	-0.1639037
-6.50412	battling	-0.1850212
-6.026999	batty	-0.2826725
-6.50412	bauch	-0.1726889
-6.50412	baud	-0.1867815
-6.20309	baudelaire	-0.1519717
-9.322292	bauer
-6.50412	bausch	-0.1726889
-6.50412	bavarian	-0.1868145
-6.50412	bawd	-0.1519722
-6.50412	bawled	-0.1854274
-6.20309	baxter	-0.4063742
-4.79655	bay	-0.610433
-6.50412	bayfield	-0.1864413
-6.026999	bayless	-0.1477753
-6.50412	bayless'	-0.1868073
-6.50412	bayliner	-0.183389
-5.328029	baylor	-0.1807075
-6.20309	baylor's	-0.1699607
-6.50412	bayou	-0.1726889
-5.902061	bays	-0.1673882
-9.322292	baywatch
-6.50412	bazaar	-0.1726889
-6.50412	bazo	-0.183734
-6.50412	bb	-0.1843654
-2.379812	be	-0.401054
-9.322292	bea
-4.432238	beach	-0.3723197
-6.50412	beachcomber	-0.185579
-5.089147	beaches	-0.3466635
-9.322292	beacon
-9.322292	beacons
-6.50412	beads	-0.1846613
-5.902061	beagle	-0.1781077
-5.3	beam	-0.2785743
-9.322292	beamed
-6.50412	beamer	-0.1851055
-6.50412	beamers	-0.1726889
-6.50412	beaming	-0.1726889
-5.805151	beams	-0.3550951
-5.248848	bean	-0.1656823
-6.026999	bean's	-0.1826379
-9.322292	beanie
-4.860668	beans	-0.5737443
-4.813924	bear	-0.4333714
-9.322292	beara
-6.026999	bearable	-0.132473
-5.60103	beard	-0.275748
-6.50412	beard's	-0.1867451
-6.50412	beards	-0.1763181
-9.322292	bearer
-5.273671	bearing	-0.2326601
-5.424939	bearings	-0.2596192
-9.322292	bearish
-5.026999	bears	-0.3802455
-6.50412	bears'	-0.1867827
-5.50412	beast	-0.1988795
-6.50412	beastie	-0.1846403
-4.3	beat	-0.4207946
-5.248848	beaten	-0.2193198
-5.805151	beater	-0.248079
-5.10618	beating	-0.1826627
-6.20309	beatings	-0.392251
-6.50412	beatle	-0.1775512
-5.20309	beatles	-0.3478338
-6.50412	beatles'	-0.1867148
-5.390177	beats	-0.267831
-9.322292	beatty
-6.50412	beaucoup	-0.1867911
-6.20309	beaumont	-0.1726804
-6.50412	beauregard	-0.1837072
-9.322292	beaus
-6.026999	beautician	-0.2700948
-3.993575	beautiful	-0.3498642
-5.549878	beautifully	-0.2684116
-6.026999	beautify	-0.3002139
-5.181901	beauty	-0.3184593
-5.725969	beaver	-0.325463
-6.50412	beavers	-0.1868107
-9.322292	beavis
-6.50412	bebble	-0.1519722
-6.50412	bebopping	-0.1867738
-4.482931	became	-0.3790839
-2.476771	because	-1.217636
-6.50412	becca	-0.1867768
-6.50412	beck	-0.1726889
-9.322292	beckel
-9.322292	becker
-9.322292	beckwith
-5.902061	becky	-0.1445893
-9.322292	becky's
-4.043222	become	-0.4018205
-4.535637	becomes	-0.3451586
-4.470696	becoming	-0.3636296
-4.284012	bed	-0.3830523
-6.50412	bed's	-0.1863073
-5.725969	bedding	-0.3095605
-9.322292	bedford
-6.50412	bedlam	-0.1834622
-6.50412	bedpans	-0.1726889
-6.026999	bedridden	-0.3023005
-9.322292	bedrock
-4.336803	bedroom	-0.4097095
-6.50412	bedroom's	-0.1773648
-4.665271	bedrooms	-0.3834046
-4.748245	beds	-0.3935737
-9.322292	bedside
-5.725969	bedspread	-0.1580175
-5.659022	bedtime	-0.1256202
-6.026999	bee	-0.1846552
-6.50412	bee's	-0.18681
-4.678045	beef	-0.2672045
-6.50412	beefed	-0.1855377
-6.20309	beefing	-0.1782728
-6.50412	beeline	-0.1842781
-2.717298	been	-0.5240213
-9.322292	beene
-5.60103	beep	-0.2488928
-5.902061	beeped	-0.1671037
-6.026999	beeper	-0.1842951
-6.20309	beepers	-0.1419254
-6.50412	beeping	-0.1816477
-6.20309	beeps	-0.1463704
-4.623307	beer	-0.384822
-9.322292	beers
-5.659022	bees	-0.438117
-6.50412	beet	-0.1775512
-5.60103	beethoven	-0.3127899
-6.50412	beethoven's	-0.1868112
-9.322292	beethovenian
-5.902061	beetle	-0.2298475
-6.026999	beetlejuice	-0.2853724
-6.20309	beetles	-0.1516309
-5.50412	beets	-0.3623422
-6.50412	befalls	-0.1856536
-6.20309	befitting	-0.3937845
-3.255167	before	-0.7428419
-5.424939	beforehand	-0.3532737
-6.50412	befriended	-0.1519722
-6.50412	befriends	-0.1855651
-5.273671	beg	-0.6736929
-9.322292	begala
-4.924337	began	-0.4396826
-6.50412	begats	-0.1519722
-9.322292	begged
-5.725969	begging	-0.3161534
-4.462728	begin	-0.8459619
-6.20309	beginner	-0.183707
-6.50412	beginner's	-0.1868141
-6.20309	beginners	-0.1822339
-4.19449	beginning	-0.6556799
-6.20309	beginnings	-0.1784237
-5.50412	begins	-0.2960869
-9.322292	begleiter
-6.50412	begonias	-0.1816477
-6.20309	begrudge	-0.164683
-9.322292	begs
-5.390177	begun	-0.552976
-6.20309	behalf	-0.1726881
-5.424939	behave	-0.1388073
-5.659022	behaved	-0.2191394
-9.322292	behaving
-4.935919	behavior	-0.3621453
-5.659022	behavioral	-0.236431
-6.20309	behaviors	-0.1708127
-4.127543	behind	-0.5363384
-6.50412	behinds	-0.1854523
-9.322292	behof
-6.20309	behold	-0.1502611
-6.50412	beholder	-0.1519722
-6.50412	beholding	-0.1773962
-6.50412	behoove	-0.1859985
-5.725969	beige	-0.2098648
-5.725969	beijing	-0.2582943
-9.322292	beijing's
-3.253213	being	-0.3657688
-6.50412	being's	-0.1866697
-5.424939	beings	-0.1584211
-6.026999	beirut	-0.1800977
-6.20309	bel	-0.1867299
-9.322292	belarus
-6.50412	belch	-0.1868014
-6.50412	belcher	-0.1726889
-6.20309	belching	-0.1853633
-9.322292	beleaguered
-6.50412	belev	-0.1868048
-9.322292	belfast
-6.20309	belfry	-0.3715342
-6.50412	belgian	-0.1868148
-6.20309	belgians	-0.170413
-6.20309	belgium	-0.1405868
-9.322292	belgrade
-5.424939	belief	-0.2858897
-5.142393	beliefs	-0.3135602
-5.549878	believable	-0.3267625
-3.527312	believe	-0.832734
-5.248848	believed	-0.5120806
-5.462728	believer	-0.9130071
-9.322292	believers
-5.3	believes	-0.4496713
-5.805151	believing	-0.2443733
-6.50412	belittled	-0.185579
-6.20309	belittling	-0.1405868
-4.813924	bell	-0.2728995
-9.322292	bell's
-9.322292	bella
-6.50412	bellcore	-0.1868084
-6.20309	belle	-0.136645
-5.902061	bellies	-0.1260227
-6.50412	belligerent	-0.1868127
-9.322292	bellman
-6.026999	bells	-0.1692204
-5.50412	belly	-0.4337714
-6.50412	bellyache	-0.1519722
-4.711729	belong	-1.080785
-5.50412	belonged	-0.8651112
-5.902061	belonging	-0.4311465
-6.026999	belongings	-0.1467199
-5.328029	belongs	-0.8046674
-6.50412	belorussia	-0.1726889
-9.322292	beloved
-4.725969	below	-0.3091033
-9.322292	belsky
-4.763758	belt	-0.3206853
-6.20309	belted	-0.1519611
-6.50412	beltin	-0.1519722
-6.50412	beltline	-0.1706273
-6.20309	belton	-0.1691492
-4.972641	belts	-0.4474073
-5.50412	beltway	-0.1344389
-6.20309	belva	-0.4063721
-6.50412	bemerton	-0.1519722
-5.902061	ben	-0.2797565
-6.20309	benadryl	-0.3715342
-5.026999	bench	-0.377763
-6.20309	benches	-0.392251
-6.50412	benchley	-0.1834669
-9.322292	benchmark
-4.998971	bend	-0.3094538
-6.50412	bender	-0.1868062
-6.20309	benders	-0.175962
-5.805151	bending	-0.2479573
-6.026999	bendix	-0.3180822
-6.20309	bends	-0.136645
-6.20309	beneath	-0.1667641
-6.50412	benedict	-0.1867907
-9.322292	benedictine
-4.985606	beneficial	-0.4151112
-9.322292	beneficiaries
-6.50412	beneficiary	-0.1796803
-4.18815	benefit	-0.4470206
-5.805151	benefited	-0.512353
-6.20309	benefiting	-0.392251
-3.846109	benefits	-0.5388499
-5.805151	benefitted	-0.260675
-6.20309	benefitting	-0.4055582
-6.026999	bengals	-0.2840825
-6.20309	benign	-0.1695715
-6.50412	benihana's	-0.1519722
-9.322292	benjamin
-6.50412	benji	-0.1868145
-9.322292	bennet
-9.322292	benneton
-6.50412	bennett	-0.1706273
-5.902061	bennigan's	-0.1490255
-6.20309	bennington	-0.1806016
-6.50412	benny	-0.1868145
-9.322292	bens
-9.322292	bensi
-9.322292	benson
-5.328029	bent	-0.2525616
-9.322292	bentley
-6.20309	bentsen	-0.185367
-9.322292	bentsen's
-6.50412	benyak	-0.186099
-6.20309	benz	-0.1682102
-6.50412	benzes	-0.1862876
-6.50412	berating	-0.1846613
-6.50412	berbar	-0.1846613
-6.50412	berber	-0.1846613
-9.322292	berens
-6.20309	berenson	-0.1692297
-6.50412	beret	-0.1706273
-9.322292	berets
-6.50412	beretta	-0.1519722
-9.322292	berg
-6.026999	bergen	-0.1640988
-9.322292	berger
-9.322292	bergman
-5.248848	berkeley	-0.2802976
-9.322292	berkes
-6.20309	berkley	-0.1864491
-6.50412	berkner	-0.1855622
-6.50412	berle	-0.18672
-5.805151	berlin	-0.2079216
-9.322292	berlusconi
-9.322292	berman
-5.012759	bermuda	-0.3154755
-6.026999	bermuda's	-0.1852001
-6.50412	bern	-0.1839326
-9.322292	bernadette
-9.322292	bernard
-9.322292	bernardin
-5.805151	bernardino	-0.2070239
-6.50412	bernards	-0.185579
-6.50412	berney	-0.1519722
-9.322292	bernice
-6.50412	bernie	-0.1868149
-6.026999	bernie's	-0.2848383
-9.322292	bernstein
-5.902061	berries	-0.4188454
-5.659022	berry	-0.2720436
-6.50412	berry's	-0.1867361
-6.50412	berserk	-0.1519722
-9.322292	bert
-9.322292	berta
-6.20309	bertinelli	-0.149638
-9.322292	bertrand
-9.322292	beschloss
-5.357992	beside	-0.3182336
-4.370581	besides	-0.2780798
-6.20309	besieged	-0.4059947
-9.322292	bessie
-9.322292	bessie's
-3.625024	best	-0.32303
-9.322292	best-seller
-6.50412	bestowed	-0.1846403
-5.902061	bestseller	-0.2446567
-6.50412	bestsellers	-0.1833151
-9.322292	bestselling
-3.850908	bet	-0.8689653
-5.725969	beta	-0.181576
-6.20309	betcha	-0.1503299
-5.902061	beth	-0.6458873
-6.50412	bethany	-0.1867029
-6.026999	bethesda	-0.1858962
-9.322292	bethlehem
-9.322292	betrafort
-9.322292	betray
-9.322292	betrayal
-9.322292	betrayed
-6.50412	bets	-0.186814
-9.322292	betsy
-5.805151	bette	-0.5273216
-3.312949	better	-0.3592512
-6.50412	betters	-0.1867507
-9.322292	bettina
-6.50412	betting	-0.1843654
-5.659022	betty	-0.1193071
-3.768521	between	-0.3687404
-5.725969	beuerlein	-0.1662357
-6.50412	beuerlein's	-0.1864521
-6.50412	bev	-0.1706273
-6.026999	bevelled	-0.1775221
-6.50412	beverage	-0.183389
-6.026999	beverages	-0.1435997
-5.549878	beverly	-0.3640705
-6.50412	beware	-0.1519722
-6.50412	bewildered	-0.1855292
-6.50412	bewitched	-0.1867655
-4.508485	beyond	-0.5409762
-9.322292	bhutto
-6.50412	bi	-0.1824804
-9.322292	biamby
-5.225367	bias	-0.2117745
-5.041722	biased	-0.3421241
-6.50412	biases	-0.1706273
-6.50412	biasly	-0.1706273
-6.026999	bib	-0.3181108
-4.832023	bible	-0.2071197
-6.50412	bible's	-0.1848888
-6.50412	bibles	-0.1519722
-5.60103	biblical	-0.2205762
-6.50412	bibliography	-0.1519722
-5.902061	bibs	-0.2660985
-6.20309	bicentennial	-0.1483432
-6.50412	bicep	-0.1868149
-6.026999	bichon	-0.3202644
-6.50412	bichons	-0.1519722
-6.50412	bickering	-0.1726889
-4.763758	bicycle	-0.2092609
-6.50412	bicycled	-0.1859961
-5.462728	bicycles	-0.3485035
-5.328029	bicycling	-0.3642804
-6.50412	bicyclist	-0.1834669
-5.805151	bid	-0.2425644
-6.50412	bidder	-0.183734
-6.50412	bidders	-0.1846613
-6.026999	bidding	-0.151839
-6.50412	bide	-0.1865191
-9.322292	biden
-6.50412	biding	-0.1860336
-6.026999	bids	-0.1713563
-9.322292	bierbarror
-9.322292	bierbauer
-6.50412	biffin's	-0.1519722
-9.322292	bifida
-6.20309	bifocals	-0.1824757
-6.50412	bifricated	-0.1868077
-3.094187	big	-0.2459086
-4.133052	bigger	-0.3102269
-4.092501	biggest	-0.3443632
-5.805151	biggie	-0.3257609
-5.805151	biggies	-0.1392461
-6.50412	bighorns	-0.1816477
-9.322292	bigot
-6.026999	bigoted	-0.3007995
-9.322292	bigotry
-9.322292	bihac
-4.40375	bike	-0.3716007
-6.50412	biked	-0.1726889
-6.20309	biker	-0.1726791
-6.50412	bikers	-0.1864609
-5.273671	bikes	-0.2390504
-5.248848	biking	-0.2369405
-9.322292	bikini
-9.322292	bilateral
-5.357992	bilingual	-0.2670229
-6.50412	bilingualism	-0.1775512
-6.50412	bilk	-0.186433
-4.122103	bill	-0.342808
-6.026999	bill's	-0.1851601
-6.50412	billboard	-0.1726889
-6.50412	billboards	-0.1519722
-6.026999	billed	-0.1802071
-6.50412	billfold	-0.1854274
-6.50412	billiard	-0.1867874
-9.322292	billie
-5.725969	billing	-0.3931897
-6.20309	billings	-0.1838935
-4.880871	billion	-0.5272379
-9.322292	billionaire
-5.142393	billions	-0.9369824
-4.216319	bills	-0.4134161
-5.273671	billy	-0.5085916
-6.50412	billy's	-0.1519722
-5.902061	biloxi	-0.2443833
-6.20309	bim	-0.1843653
-6.50412	bimbo	-0.1706273
-6.50412	bimonthly	-0.1519722
-4.860668	bin	-0.3393331
-5.902061	binary	-0.2326926
-5.60103	bind	-0.1144547
-6.20309	binders	-0.1652625
-6.20309	binding	-0.1832707
-9.322292	bindle
-9.322292	bindles
-6.20309	binds	-0.3958802
-6.026999	bing	-0.3194451
-5.902061	binge	-0.1614031
-6.20309	binges	-0.1774694
-9.322292	binghamton
-9.322292	binging
-5.424939	bingo	-0.178832
-6.50412	binoculars	-0.1726889
-4.612026	bins	-0.4572663
-6.50412	bio	-0.1867976
-6.50412	biochemical	-0.1816477
-5.725969	biodegradable	-0.1794596
-6.50412	biodegrade	-0.1726889
-9.322292	biodiversity
-6.50412	biographer	-0.1864051
-5.462728	biographies	-0.2374284
-5.805151	biography	-0.1249648
-5.549878	biological	-0.1643196
-6.50412	biologically	-0.1868148
-6.50412	biologist	-0.1775512
-9.322292	biologists
-5.549878	biology	-0.282816
-6.50412	biomedical	-0.1868117
-9.322292	biophysics
-9.322292	biopsy
-9.322292	biorhythms
-9.322292	biosphere
-6.50412	biotech	-0.1866941
-9.322292	biotechnology
-9.322292	bipartisan
-9.322292	bipartisanship
-6.50412	birch	-0.1867742
-4.585042	bird	-0.2025537
-6.026999	bird's	-0.1517035
-6.50412	birdie	-0.1519722
-4.779844	birds	-0.3248075
-6.50412	birkner	-0.1866482
-6.026999	birmingham	-0.1343968
-6.50412	birraporettis	-0.1834669
-5.123909	birth	-0.2828701
-4.665271	birthday	-0.4706948
-6.20309	birthday's	-0.1865222
-5.424939	birthdays	-0.3626069
-6.50412	birthing	-0.1867857
-9.322292	birthplace
-9.322292	births
-9.322292	birtley
-9.322292	bisay
-9.322292	biscaynne
-5.659022	biscuits	-0.4423656
-9.322292	bisexual
-9.322292	bishop
-9.322292	bishops
-6.50412	bishu	-0.1837765
-6.50412	bison	-0.1868125
-6.20309	bisque	-0.1631154
-6.20309	bisquick	-0.3715342
-3.187312	bit	-0.5823244
-6.20309	bitch	-0.392251
-9.322292	bitching
-4.960052	bite	-0.2678048
-6.50412	bite-size	-0.1868047
-5.659022	bites	-0.2627961
-5.725969	biting	-0.2306248
-6.50412	bitish	-0.1763181
-5.161697	bits	-0.4275315
-6.50412	bittel	-0.186751
-6.50412	bitten	-0.1866488
-5.805151	bitter	-0.36717
-9.322292	bittered
-6.50412	bitterest	-0.1867474
-6.50412	bitterly	-0.1867947
-9.322292	bittermann
-6.50412	bitterness	-0.1834669
-6.50412	bittersweet	-0.186162
-4.947818	bitty	-0.1860424
-6.20309	biweekly	-0.1706267
-5.60103	biz	-0.1109334
-5.123909	bizarre	-0.2893156
-6.50412	bizmart	-0.1742224
-9.322292	bjorn
-4.09082	black	-0.3350207
-9.322292	black's
-6.50412	black-and-blue	-0.1867994
-6.20309	black-eye	-0.4063744
-5.805151	black-eyed	-0.5273215
-6.50412	blackball	-0.1854523
-5.659022	blackberries	-0.1914052
-6.50412	blackberry	-0.1868106
-9.322292	blackburn
-5.805151	blackened	-0.1405742
-6.026999	blackening	-0.183461
-6.50412	blackens	-0.1795717
-6.50412	blackfoot	-0.1726889
-9.322292	blackhawk
-6.50412	blackish	-0.1726889
-6.20309	blacklist	-0.1839354
-9.322292	blackmail
-6.026999	blackman	-0.3061386
-9.322292	blackmun
-9.322292	blackout
-6.50412	blackouts	-0.1519722
-4.998971	blacks	-0.2006889
-6.026999	blacksburg	-0.1511319
-6.50412	blacksmith	-0.1726889
-9.322292	blackstone
-9.322292	blacktop
-9.322292	blackwell
-6.50412	blackwoods	-0.1519722
-9.322292	bladder
-5.123909	blade	-0.2591297
-5.805151	blades	-0.1460495
-6.50412	blading	-0.1867696
-9.322292	bladyblah
-5.026999	blah	-0.647253
-6.20309	blair	-0.1726378
-6.20309	blake	-0.1726227
-9.322292	blakeman
-9.322292	blakemore
-4.569622	blame	-0.5978873
-5.659022	blamed	-0.2206968
-6.50412	blames	-0.1852532
-5.902061	blaming	-0.2537462
-6.50412	blanchard	-0.1846613
-6.026999	blanche	-0.3141471
-6.50412	blanco	-0.1867986
-5.805151	bland	-0.130195
-5.026999	blank	-0.2258237
-6.50412	blank's	-0.186794
-5.3	blanket	-0.1453768
-5.60103	blankets	-0.4577406
-6.50412	blanking	-0.186793
-9.322292	blankly
-6.20309	blanks	-0.3715342
-6.20309	blase	-0.1852182
-9.322292	blasier
-6.20309	blasphemy	-0.1839219
-5.3	blast	-0.2671379
-5.902061	blasted	-0.1713714
-6.50412	blasters	-0.1851529
-6.20309	blasting	-0.1504953
-6.50412	blasts	-0.1773648
-5.902061	blatant	-0.1736785
-5.902061	blatantly	-0.1834284
-6.20309	blaze	-0.1788478
-5.60103	blazer	-0.1846626
-6.026999	blazers	-0.2963725
-9.322292	blazes
-6.50412	blazey	-0.1519722
-5.902061	blazing	-0.2478275
-6.026999	bleach	-0.1417182
-9.322292	bleached
-5.902061	bleachers	-0.247385
-6.50412	bleaching	-0.1831002
-6.50412	bleak	-0.1831002
-6.50412	bled	-0.1867496
-5.902061	bleed	-0.1737182
-5.725969	bleeding	-0.1893578
-6.50412	bleeds	-0.1726889
-6.50412	bleep	-0.1868085
-5.902061	blend	-0.1321278
-6.026999	blended	-0.315057
-6.026999	blender	-0.1745248
-6.50412	blenders	-0.1519722
-6.50412	blending	-0.1867751
-4.960052	bless	-0.594426
-5.357992	blessed	-0.3611163
-6.50412	blesses	-0.1864886
-5.462728	blessing	-0.2624334
-6.20309	blessings	-0.1840737
-6.20309	bleu	-0.1519459
-4.960052	blew	-0.4768922
-6.50412	blight	-0.1846403
-9.322292	blimp
-9.322292	blimpie's
-5.462728	blind	-0.2757035
-6.20309	blinded	-0.1851959
-6.50412	blinders	-0.1846403
-6.50412	blindfold	-0.1868133
-6.50412	blindly	-0.1763181
-9.322292	blindness
-6.50412	blinds	-0.1726889
-6.20309	blindsided	-0.149638
-5.805151	blink	-0.2258495
-6.50412	blinked	-0.1763181
-6.50412	blinking	-0.1519722
-6.50412	blip	-0.186099
-9.322292	bliscoll
-6.50412	bliss	-0.1859961
-6.50412	blissful	-0.1781593
-6.50412	blistering	-0.1846613
-6.026999	blisters	-0.1739256
-5.902061	blithe	-0.1647709
-6.20309	blitz	-0.1830535
-6.20309	blitzer	-0.1512536
-9.322292	blitzes
-6.50412	blizzard	-0.1855377
-9.322292	bloated
-6.50412	blob	-0.186601
-9.322292	blobby
-6.50412	bloc	-0.1867722
-4.629059	block	-0.2740568
-9.322292	blockade
-5.60103	blockbuster	-0.220871
-6.20309	blockbuster's	-0.1690728
-6.20309	blockbusters	-0.3715342
-9.322292	blocked
-5.902061	blocking	-0.1851573
-4.880871	blocks	-0.4243689
-5.462728	blond	-0.2581123
-5.60103	blonde	-0.2309359
-6.50412	blondie	-0.1816477
-4.512894	blood	-0.4519994
-9.322292	bloodbath
-6.20309	blooded	-0.1865364
-5.725969	bloodhound	-0.2889401
-6.50412	bloodier	-0.1863461
-9.322292	bloodiest
-6.50412	bloodless	-0.1519722
-9.322292	bloods
-6.50412	bloodshed	-0.1726889
-9.322292	bloodstain
-9.322292	bloodstains
-6.20309	bloodstream	-0.1731614
-6.50412	bloodthirsty	-0.1706273
-5.50412	bloody	-0.2319202
-5.041722	bloom	-0.3799426
-5.902061	bloomed	-0.1810477
-6.50412	bloomers	-0.1519722
-9.322292	bloomfield
-5.181901	blooming	-0.2441363
-9.322292	bloomingdale's
-5.725969	blooms	-0.1352509
-6.026999	bloopers	-0.166468
-6.20309	blossom	-0.1726874
-6.50412	blossomed	-0.1726889
-6.50412	blossoming	-0.1853902
-5.805151	blossoms	-0.16677
-6.50412	blot	-0.1867756
-5.328029	blouse	-0.1950028
-5.390177	blouses	-0.4848374
-4.629059	blow	-0.3031752
-6.50412	blow's	-0.1843654
-6.50412	blow-outs	-0.1726889
-5.725969	blower	-0.2246364
-6.20309	blowers	-0.3715342
-4.850908	blowing	-0.3672636
-5.041722	blown	-0.5200343
-6.50412	blowout	-0.1706273
-6.50412	blowouts	-0.1846613
-5.10618	blows	-0.1622908
-6.50412	blowup	-0.1726889
-6.50412	blowy	-0.1706273
-4.377016	blue	-0.3492116
-6.20309	blue-green	-0.1775284
-5.805151	blueberries	-0.3622044
-5.725969	blueberry	-0.170681
-5.659022	bluebonnets	-0.3821852
-5.725969	bluegrass	-0.1488769
-9.322292	blueprint
-6.50412	blueprints	-0.1726889
-5.072757	blues	-0.414209
-6.50412	bluesy	-0.1868024
-9.322292	bluff
-6.50412	bluffed	-0.1848779
-6.50412	bluish	-0.1868089
-9.322292	blunder
-6.20309	blunt	-0.1726784
-5.902061	bluntly	-0.1587382
-9.322292	blur
-6.026999	blurb	-0.1787021
-6.20309	blurbs	-0.1785727
-6.50412	blurred	-0.1858666
-9.322292	blush
-6.20309	bly	-0.1519027
-9.322292	blystone
-5.390177	bo	-0.2705069
-6.50412	bo's	-0.1866443
-6.20309	boa	-0.4063768
-5.902061	boar	-0.1382937
-4.41776	board	-0.2995372
-9.322292	board's
-6.50412	boarded	-0.1842781
-6.026999	boarding	-0.184243
-5.142393	boards	-0.1453045
-6.20309	boardwalk	-0.392251
-6.50412	boast	-0.1781593
-9.322292	boasted
-6.50412	boastful	-0.1831002
-9.322292	boasting
-9.322292	boasts
-4.167661	boat	-0.3084789
-6.50412	boated	-0.1851055
-5.072757	boating	-0.2133108
-4.972641	boats	-0.311174
-4.913056	bob	-0.357136
-9.322292	bob's
-6.026999	bobber	-0.1308406
-6.50412	bobbi	-0.1868119
-9.322292	bobbie
-9.322292	bobbitt
-9.322292	bobbitt's
-5.328029	bobby	-0.3408626
-6.50412	bobrank	-0.1726889
-6.50412	bobsy	-0.18681
-6.50412	boca	-0.1868148
-9.322292	bochram
-6.50412	bod	-0.1519722
-9.322292	bode
-9.322292	bodega
-9.322292	bodes
-9.322292	bodied
-5.328029	bodies	-0.3390035
-6.20309	bodily	-0.1868095
-4.348784	body	-0.319596
-6.20309	body's	-0.184886
-9.322292	bodyguard
-9.322292	bodyguards
-9.322292	bodziak
-5.462728	boeing	-0.3138985
-6.026999	bog	-0.3189445
-9.322292	bogart
-6.50412	bogart's	-0.1867444
-6.50412	bogarts	-0.1867727
-6.20309	bogey	-0.1695057
-5.659022	bogged	-0.8236028
-6.50412	boggled	-0.1848779
-5.659022	boggles	-0.2619652
-5.805151	boggling	-0.492429
-9.322292	bogota
-6.026999	bogus	-0.2813953
-6.50412	bogused	-0.1846403
-6.026999	bohemian	-0.1824264
-5.390177	boil	-0.3013095
-5.805151	boiled	-0.3521782
-6.50412	boilermaker	-0.1865146
-5.902061	boiling	-0.1701095
-5.725969	boils	-0.9388069
-5.805151	boise	-0.3064589
-5.659022	bold	-0.2826848
-9.322292	boldly
-6.026999	bolivia	-0.1260232
-6.50412	bollfield	-0.1867882
-6.50412	bologna	-0.186756
-6.50412	bolshevik	-0.1868129
-9.322292	bolster
-9.322292	bolstered
-5.50412	bolt	-0.1675629
-6.20309	bolted	-0.1833565
-6.026999	bolton	-0.1496953
-5.248848	bolts	-0.2522303
-5.424939	bomb	-0.1460698
-5.725969	bombarded	-0.2815498
-6.20309	bombarding	-0.1754815
-9.322292	bombardment
-5.50412	bombay	-0.3573078
-6.20309	bombays	-0.1472734
-6.50412	bombeck	-0.1519722
-6.50412	bombeck's	-0.1868123
-6.50412	bombecks	-0.185972
-5.549878	bombed	-0.2866503
-6.50412	bomber	-0.1868092
-6.50412	bombers	-0.1726889
-5.549878	bombing	-0.1694904
-6.50412	bombing's	-0.1839326
-6.50412	bombings	-0.1519722
-5.462728	bombs	-0.3365137
-9.322292	bombshell
-5.805151	bon	-0.3718277
-9.322292	bona
-6.50412	bonaducci	-0.1859961
-6.50412	bonafide	-0.1867956
-6.20309	bonanza	-0.1726361
-5.026999	bond	-0.1698665
-6.50412	bondage	-0.1846403
-6.50412	bonded	-0.1773962
-5.462728	bonding	-0.3282879
-6.50412	bondo	-0.1846613
-4.972641	bonds	-0.4253838
-5.50412	bone	-0.1699591
-6.026999	boneless	-0.2853957
-5.424939	bones	-0.1955075
-6.20309	bonfire	-0.1653163
-6.026999	bonham	-0.3057526
-9.322292	bonier
-6.026999	bonilla	-0.2847034
-9.322292	bonior
-6.20309	bonkers	-0.3715342
-9.322292	bonn
-5.902061	bonneville	-0.1606718
-6.20309	bonnie	-0.4063768
-6.20309	bonny	-0.1441182
-9.322292	bono
-5.161697	bonus	-0.1724306
-5.549878	bonuses	-0.2769147
-9.322292	bony
-6.50412	bonzo	-0.1868084
-6.50412	boo	-0.1519722
-9.322292	boobs
-6.50412	booby	-0.1868142
-9.322292	booed
-6.50412	booey	-0.1806993
-6.50412	booger	-0.1519722
-3.819275	book	-0.4807985
-6.50412	book's	-0.1867461
-6.20309	bookcase	-0.1505879
-6.50412	bookcases	-0.1726889
-5.659022	booked	-0.3053561
-6.50412	bookends	-0.1519722
-9.322292	booking
-6.20309	bookkeeper	-0.1815649
-6.20309	bookkeepers	-0.1498846
-6.20309	bookkeeping	-0.136645
-5.328029	booklet	-0.1660451
-5.805151	booklets	-0.1255804
-6.50412	bookmobile	-0.1781593
-3.928932	books	-0.5618211
-6.50412	booksellers	-0.1868097
-6.20309	bookshelf	-0.3715342
-6.50412	bookshelves	-0.1846613
-6.20309	bookstop	-0.1840895
-6.50412	bookstore	-0.1781593
-6.50412	bookstores	-0.1726889
-6.20309	bookworm	-0.1826929
-5.273671	boom	-0.2235599
-6.026999	boomer	-0.1559297
-6.50412	boomerang	-0.1864168
-6.026999	boomers	-0.1666281
-5.805151	booming	-0.1806936
-6.20309	boon	-0.3969582
-5.902061	boondocks	-0.2368875
-5.902061	boondoggle	-0.2441293
-6.50412	boone	-0.1868149
-6.50412	boonies	-0.1519722
-9.322292	boop
-9.322292	boorda
-9.322292	boorda's
-5.50412	boost	-0.2421888
-9.322292	boosted
-5.805151	booster	-0.1592996
-9.322292	boosters
-9.322292	boosting
-5.390177	boot	-0.2107177
-6.50412	booted	-0.1846253
-5.725969	booth	-0.3249116
-6.50412	booths	-0.1824804
-6.50412	bootleg	-0.1868142
-6.20309	bootlegs	-0.1653163
-5.20309	boots	-0.3387409
-6.50412	bootstrap	-0.1854523
-6.50412	bootstraps	-0.1726889
-5.725969	booze	-0.1402117
-6.50412	boozier	-0.1867085
-9.322292	borda
-6.50412	borden	-0.1868095
-4.574701	border	-0.3716344
-6.026999	bordering	-0.3054334
-5.462728	borderline	-0.2077063
-5.142393	borders	-0.2941071
-5.725969	bore	-0.1949817
-4.850908	bored	-0.2652447
-6.026999	boredom	-0.1777757
-9.322292	boren
-6.50412	borger	-0.1834622
-9.322292	borghausen
-4.55473	boring	-0.3810159
-6.20309	boris	-0.4063751
-9.322292	bork
-4.339767	born	-0.5444767
-9.322292	borne
-6.50412	borough	-0.1839326
-6.20309	boroughs	-0.1425855
-5.072757	borrow	-0.3410789
-5.181901	borrowed	-0.2535948
-6.50412	borrower	-0.183389
-9.322292	borrowers
-5.225367	borrowing	-0.1859536
-9.322292	borscht
-6.50412	bosch	-0.1867461
-9.322292	bosco
-9.322292	bosko
-9.322292	bosnia
-9.322292	bosnia's
-9.322292	bosnian
-9.322292	bosnians
-6.50412	bosom	-0.1854274
-4.646788	boss	-0.263646
-6.20309	boss's	-0.1866935
-9.322292	bossed
-5.60103	bosses	-0.1456064
-4.487087	boston	-0.2592772
-5.659022	boston's	-0.1762698
-6.50412	bostonian	-0.1868085
-6.20309	botanical	-0.4063699
-9.322292	botanist
-9.322292	botanists
-9.322292	botany
-6.50412	botched	-0.1742224
-3.501522	both	-0.3004951
-4.313788	bother	-0.6595514
-6.50412	bother's	-0.1726889
-4.822879	bothered	-0.5256588
-5.390177	bothering	-0.2911141
-4.60103	bothers	-0.9639756
-6.20309	bothersome	-0.1759131
-4.788117	bottle	-0.3115618
-5.902061	bottled	-0.2823228
-6.50412	bottlers	-0.1726889
-4.354901	bottles	-0.4784848
-6.50412	bottling	-0.1795717
-4.373786	bottom	-0.5037828
-6.20309	bottomed	-0.1853806
-6.50412	bottoming	-0.1853902
-6.50412	bottomless	-0.1868123
-5.805151	bottoms	-0.1192287
-3.589777	bought	-0.7224511
-6.50412	boughten	-0.1862064
-6.026999	bouillon	-0.1794673
-6.20309	boulder	-0.1706034
-6.026999	boulders	-0.13238
-6.50412	boule	-0.1726889
-6.20309	boulevard	-0.1504684
-5.328029	bounce	-0.2949309
-5.725969	bounced	-0.2122905
-6.50412	bouncer	-0.1519722
-6.20309	bounces	-0.166532
-5.390177	bouncing	-0.3037585
-6.50412	bouncy	-0.183734
-5.10618	bound	-0.5887606
-5.390177	boundaries	-0.2414712
-6.20309	boundary	-0.1867395
-6.50412	bounded	-0.1864326
-5.549878	bounds	-0.1768139
-6.50412	bountiful	-0.1867876
-9.322292	bounty
-6.50412	bourgeoisie	-0.1837072
-6.50412	bourguignon	-0.1868021
-6.026999	bourne	-0.1866665
-9.322292	bout
-5.902061	boutique	-0.1481548
-6.50412	boutiques	-0.1843731
-9.322292	boutros
-5.3	bow	-0.2098565
-6.50412	bowden	-0.1866542
-6.50412	bowdoin	-0.1816477
-6.50412	bowed	-0.1853902
-6.50412	bowel	-0.1726889
-9.322292	bowers
-6.50412	bowes	-0.1726889
-5.462728	bowie	-0.1799922
-6.50412	bowie's	-0.1848888
-9.322292	bowing
-4.590306	bowl	-0.296078
-6.50412	bowl's	-0.1846403
-6.50412	bowled	-0.1816477
-6.50412	bowlers	-0.1726889
-9.322292	bowles
-5.3	bowling	-0.2218648
-5.390177	bowls	-0.5366725
-9.322292	bowman
-5.725969	bows	-0.2931776
-4.451042	box	-0.3526987
-6.20309	boxed	-0.1726867
-6.50412	boxer	-0.183734
-4.718791	boxes	-0.3303465
-6.50412	boxing	-0.1846613
-6.50412	boxwood	-0.1868106
-6.026999	boxy	-0.1477555
-3.619892	boy	-0.6215349
-5.659022	boy's	-0.1838427
-9.322292	boycott
-9.322292	boyd
-5.041722	boyfriend	-0.1886731
-6.026999	boyfriend's	-0.1805696
-5.902061	boyfriends	-0.1641519
-9.322292	boyhood
-9.322292	boyle
-4.089147	boys	-0.3668135
-5.902061	boys'	-0.2826464
-6.50412	bozo	-0.1863133
-6.026999	bra	-0.1836103
-5.902061	brace	-0.1706238
-6.20309	braced	-0.1519355
-5.902061	bracelet	-0.1293835
-5.725969	braces	-0.2673021
-6.50412	bracing	-0.1833151
-5.248848	bracket	-0.338102
-5.805151	brackets	-0.1296858
-6.50412	brackish	-0.1833151
-6.20309	brackman	-0.1867014
-6.50412	brackman's	-0.1775512
-5.60103	brad	-0.2547521
-6.20309	bradford	-0.1857805
-6.50412	bradford's	-0.1867427
-6.50412	bradley	-0.1864258
-5.659022	bradshaw	-0.3541041
-6.50412	bradshaw's	-0.1867639
-6.026999	bradstreet	-0.3061227
-5.357992	brady	-0.3982773
-9.322292	brady's
-6.20309	brag	-0.4047982
-9.322292	bragg
-5.902061	bragging	-0.1797515
-6.50412	brags	-0.1852362
-9.322292	braids
-5.012759	brain	-0.2592979
-5.549878	brains	-0.2525339
-6.50412	brainstorm	-0.1781593
-6.20309	brainwash	-0.1762666
-6.50412	brainwashed	-0.1846613
-6.50412	brainwashing	-0.1865415
-4.913056	brake	-0.3456591
-4.646788	brakes	-0.4863851
-6.20309	bramalea	-0.1518411
-5.549878	bran	-0.2961125
-9.322292	brancaccio
-5.225367	branch	-0.3434345
-6.20309	branched	-0.4049522
-5.462728	branches	-0.1878425
-6.026999	branching	-0.3185072
-4.386849	brand	-0.592353
-6.50412	brand-new	-0.1867835
-6.50412	branded	-0.1763181
-6.20309	brandeis	-0.1701766
-6.50412	brandice	-0.1867723
-6.026999	brando	-0.169123
-9.322292	brandon
-5.424939	brands	-0.1888532
-9.322292	brandy
-6.50412	braniff	-0.185579
-6.50412	brannigan	-0.1846613
-9.322292	branow
-6.50412	branson	-0.1519722
-6.50412	bras	-0.1846613
-6.20309	brash	-0.1846494
-9.322292	brasow
-5.60103	brass	-0.2180419
-5.902061	brat	-0.1445569
-6.50412	brats	-0.1846403
-6.20309	braun	-0.136645
-5.659022	braunfels	-0.3533974
-6.50412	braunsfel	-0.1867137
-5.390177	brave	-0.1837856
-6.50412	braved	-0.1795717
-9.322292	braveheart
-9.322292	braver
-9.322292	bravery
-5.462728	braves	-0.2172071
-9.322292	bravo
-9.322292	brawl
-6.50412	brawn	-0.1726889
-6.50412	brazen	-0.1865737
-6.50412	braziers	-0.1853902
-5.273671	brazil	-0.1922123
-9.322292	brazil's
-6.026999	brazilian	-0.1631
-9.322292	brazilians
-5.902061	brazos	-0.4412786
-6.20309	breach	-0.166876
-6.50412	breached	-0.1868126
-4.564601	bread	-0.3538283
-6.20309	breaded	-0.1726296
-6.50412	breading	-0.1846403
-6.20309	breads	-0.392251
-9.322292	breadth
-6.50412	breadwinner	-0.1726889
-4.118514	break	-0.3817858
-6.50412	break's	-0.1773648
-6.20309	break-in	-0.1852531
-5.902061	break-ins	-0.1227152
-6.20309	break-up	-0.3992423
-6.50412	breakable	-0.1519722
-9.322292	breakaway
-5.462728	breakdown	-0.2983899
-6.20309	breakdowns	-0.136645
-6.026999	breaker	-0.1798411
-6.50412	breakers	-0.1867393
-4.902061	breakfast	-0.2655502
-6.026999	breakfasts	-0.1710664
-4.652862	breaking	-0.4280274
-6.50412	breakouts	-0.1850212
-4.69794	breaks	-0.294711
-5.902061	breakthrough	-0.1771637
-6.026999	breakthroughs	-0.2798202
-9.322292	breakup
-5.357992	breast	-0.4356233
-6.50412	breasted	-0.1868095
-5.659022	breasts	-0.3495753
-5.328029	breath	-0.2794231
-5.659022	breathe	-0.1738471
-6.20309	breathed	-0.3991338
-6.50412	breathes	-0.1866037
-5.50412	breathing	-0.1494284
-6.50412	breathless	-0.1831002
-6.50412	breathtaking	-0.1848887
-9.322292	breaux
-9.322292	brecha
-6.20309	breckenridge	-0.3715342
-5.072757	bred	-0.24438
-4.813924	breed	-0.4538211
-6.50412	breeder	-0.1868149
-5.805151	breeders	-0.3296962
-5.357992	breeding	-0.2259229
-5.549878	breeds	-0.1474714
-5.60103	breeze	-0.3332933
-6.026999	breezed	-0.5773712
-5.805151	breezes	-0.2523913
-5.902061	breezeway	-0.6666041
-9.322292	breighton
-9.322292	brenda
-9.322292	brenda's
-9.322292	brennan
-6.20309	brennan's	-0.1483432
-9.322292	brenner
-6.50412	brent	-0.1859501
-9.322292	brentwood
-9.322292	brethren
-9.322292	brett
-6.20309	brew	-0.1861823
-6.50412	brewed	-0.1846403
-6.50412	brewer	-0.186707
-5.725969	brewers	-0.2076352
-6.50412	brewery	-0.1726889
-6.50412	brewing	-0.1519722
-9.322292	breyer
-9.322292	brezhnev
-5.123909	brian	-0.2183203
-6.20309	brian's	-0.1815766
-6.026999	bribe	-0.1838268
-6.50412	briberies	-0.1775512
-6.50412	bribery	-0.1831002
-9.322292	bribes
-4.733268	brick	-0.38202
-5.225367	bricks	-0.2395812
-6.50412	bridal	-0.1868081
-5.902061	bride	-0.148405
-6.50412	bride's	-0.1868149
-9.322292	bridesburg
-6.50412	bridesmaid	-0.1867778
-6.50412	bridesmaids	-0.1868149
-4.924337	bridge	-0.1698533
-6.50412	bridgeport	-0.1868148
-5.248848	bridges	-0.3387338
-5.273671	bridget	-0.8715772
-5.248848	brief	-0.2331558
-5.902061	briefcase	-0.1683705
-6.50412	briefcases	-0.1726889
-9.322292	briefed
-9.322292	briefing
-9.322292	briefings
-5.725969	briefly	-0.1707017
-6.50412	briefs	-0.1781593
-6.50412	brig	-0.1864653
-9.322292	brigade
-9.322292	brigades
-9.322292	brigadier
-5.248848	brigham	-1.098193
-4.870652	bright	-0.1626278
-6.20309	brighten	-0.4050997
-6.50412	brightens	-0.1726889
-6.026999	brighter	-0.1479454
-6.026999	brightest	-0.1326433
-6.50412	brightly	-0.1868118
-6.20309	brighton	-0.1631154
-9.322292	brihana
-6.50412	brilliance	-0.1796803
-5.424939	brilliant	-0.2247465
-9.322292	brilliantly
-5.902061	brim	-0.2281394
-3.878808	bring	-0.8464674
-4.69794	bringing	-0.3969363
-4.623307	brings	-0.5135676
-6.50412	brink	-0.1519722
-5.805151	brinkley	-0.1562518
-9.322292	briseno
-5.805151	brisk	-0.2476592
-5.805151	brisket	-0.2054238
-6.20309	briskly	-0.1803614
-6.20309	bristol	-0.1761905
-9.322292	brit
-6.20309	brit's	-0.1862012
-5.549878	britain	-0.1553072
-9.322292	britain's
-6.50412	britches	-0.1726889
-4.960052	british	-0.2800608
-6.50412	british's	-0.1868145
-6.20309	brits	-0.1859225
-9.322292	britt
-6.026999	brittany	-0.1511586
-4.870652	broad	-0.2818874
-5.10618	broadcast	-0.144305
-9.322292	broadcaster
-9.322292	broadcasters
-5.390177	broadcasting	-0.2007652
-5.725969	broadcasts	-0.1091309
-6.026999	broaden	-0.3068678
-5.725969	broadened	-0.1682373
-9.322292	broadening
-5.60103	broader	-0.26923
-9.322292	broadest
-9.322292	broadly
-6.20309	broadmoor	-0.1832616
-5.725969	broadway	-0.1307047
-9.322292	brocade
-4.998971	broccoli	-0.4720568
-6.50412	broccolis	-0.1726889
-6.50412	brochco	-0.1864051
-5.659022	brochure	-0.1351185
-6.50412	brochure-type	-0.18597
-5.805151	brochures	-0.1184493
-9.322292	brock
-9.322292	brockbank
-9.322292	broder
-6.50412	broderick	-0.1816477
-6.50412	broderick's	-0.185679
-6.50412	brodie	-0.1781593
-9.322292	brody
-9.322292	brody's
-6.026999	broil	-0.3034105
-5.902061	broiled	-0.2479951
-6.50412	brokaw	-0.1865462
-4.559638	broke	-0.3982535
-4.545079	broken	-0.4282762
-9.322292	broken-hearted
-5.902061	broker	-0.1659977
-5.805151	brokerage	-0.2615076
-9.322292	brokerages
-9.322292	brokered
-6.50412	brokering	-0.1861826
-5.725969	brokers	-0.162401
-5.659022	bronco	-0.146721
-5.60103	broncos	-0.1247923
-6.50412	bronoff	-0.1868088
-5.659022	bronx	-0.2054898
-6.026999	bronze	-0.2700948
-6.026999	brook	-0.3202601
-9.322292	brooke
-5.549878	brookhaven	-0.3602161
-6.20309	brookies	-0.149638
-9.322292	brookings
-9.322292	brookline
-5.357992	brooklyn	-0.284573
-9.322292	brookmeyer
-5.056962	brooks	-0.2579831
-6.50412	brooks'	-0.1868096
-6.50412	brookshires	-0.1855377
-9.322292	brooksville
-9.322292	broom
-5.805151	broth	-0.3020642
-4.082516	brother	-0.4813058
-5.072757	brother's	-0.2115316
-4.924337	brother-in-law	-0.2435904
-6.50412	brother-in-law's	-0.1867461
-6.50412	brother-in-laws	-0.1726889
-6.50412	brotherhood	-0.1853902
-4.487087	brothers	-0.6413893
-6.50412	brothers'	-0.1519722
-6.50412	broudigan	-0.1773648
-6.50412	brougham	-0.1837072
-4.063211	brought	-0.6250354
-6.50412	brouhaha	-0.1864084
-6.50412	brow	-0.1867998
-6.50412	browbeat	-0.1742224
-4.499799	brown	-0.3278509
-9.322292	brown's
-6.20309	browned	-0.1842316
-9.322292	browner
-6.50412	brownfield	-0.1519722
-5.805151	brownie	-0.2594052
-5.60103	brownies	-0.2990131
-6.20309	brownish	-0.1867649
-6.50412	brownish-orange	-0.1868138
-6.50412	brownnoser	-0.185579
-5.549878	browns	-0.2577516
-6.50412	brownstone	-0.183734
-6.50412	brownsville	-0.1866233
-6.026999	brownwood	-0.1719712
-6.20309	browse	-0.406023
-9.322292	browsing
-9.322292	broza
-5.273671	bruce	-0.4990061
-9.322292	bruck
-9.322292	bruise
-9.322292	bruised
-6.026999	bruises	-0.2845084
-9.322292	bruising
-5.725969	brunch	-0.1922553
-5.902061	brunches	-0.235271
-9.322292	brunemstrascher
-6.50412	bruno	-0.1868147
-9.322292	brunson
-6.50412	brunswick	-0.1868122
-6.026999	brunt	-0.5704836
-9.322292	brusca
-9.322292	brusett
-9.322292	brusette
-5.041722	brush	-0.3444121
-5.805151	brushed	-0.1678153
-5.424939	brushes	-0.1970025
-5.902061	brushing	-0.2457896
-6.50412	brussels	-0.1868148
-5.390177	brutal	-0.1818883
-6.50412	brutality	-0.1796803
-6.50412	brutalizes	-0.1773648
-6.50412	brutalizing	-0.186433
-5.805151	brutally	-0.1690043
-6.50412	brutish	-0.1773962
-6.20309	bryan	-0.1859916
-6.20309	bryan's	-0.1850334
-6.50412	bryant	-0.1519722
-6.026999	bryce	-0.5776147
-6.50412	bryn	-0.1868149
-9.322292	bryner
-9.322292	brzezinski
-9.322292	btu
-6.026999	bubble	-0.180254
-6.026999	bubbles	-0.2740366
-6.50412	bubbling	-0.1868115
-9.322292	bubby
-6.20309	buccaneers	-0.1493256
-5.902061	buchanan	-0.1839473
-9.322292	buchanan's
-9.322292	buchos
-9.322292	buchwald
