\data\
ngram 1=5
ngram 2=5

\1-grams:
-99 <s> -7.34882
-2.10718 c -4.28966
-4.77987 a -4.46041
-5.81316 </s> -7.34882
-4.02326 b -2.07313

\2-grams:
-3.33947 c a
-1.08518 c </s>
-4.58511 c b
-0.000484286 a c
-1.67833 b c

\end\
